#include <stdio.h>
#include <stdlib.h>
#include <math.h>
#include <string.h>
#include <sys/time.h>

struct timeval stop, start;


static double hidden[64];
static double output[10];
static double in_weight_dot_product[64];
static double in_weight_dot_product_add_bias[64];
static double in_weight_dot_product_add_bias_sigmoid[64];
static double hdn_weight_dot_product[10];
static double hdn_weight_dot_product_add_bias[10];
static double hdn_weight_dot_product_add_bias_sigmoid[10];

double get_int(char *arr, int type){
    int size = strlen(arr);
    int red = 0;
    switch(type){
    case 0:
        red = 11;
    case 1:
        red = 10;
    }
    char arr2[size - red];
    int temp_index = 0;
    for(int i = 0; i < size; i++){
        if (arr[i] == 45){
            arr2[temp_index] = arr[i];
            temp_index++;
        }else if(arr[i] >= 48 && arr[i] <= 57){
            arr2[temp_index] = arr[i];
            temp_index++;
        }else if(arr[i] == 46){
            arr2[temp_index] = arr[i];
            temp_index++;
        }
    }
    char *st;
    return strtod(arr2, &st);
}

void dot_product(int type){

    double sum_of_product = 0;
    static double weight_in_hidden_matrix[64][784] = {
        {-0.9655218364089095 ,-0.7173885350313618 ,-0.41094021255898117 ,-0.9060766869145886 ,0.5306309252015662 ,0.07736130905937544 ,0.9487464666261118 ,-0.7410697754192956 ,0.18404408610198475,0.921461793724689 ,-0.8419456084261847 ,0.3263095039717012 ,0.49622448456614604,-0.8476345244869741,-0.36139451094564223,0.22460507445320677,-0.9553368331441017 ,-0.9530092120844595,-0.5496935351650905,-0.7185261682427033,-0.23724303367491006,-0.32137529291975886,-0.8757487885653059,-0.39942397438707444,0.18963683927005315,-0.02542242895168023 ,0.3456031860200077,-0.1294798756267974,-0.717894246200296,0.4220887781687055,-0.5902345635721713,-0.1873496679627773,0.018536784552218653,-0.1934017205983109-0.03892200986487187 ,-0.788005102377086,0.03745719451570405,0.5725256018773,0.274084505842335,0.5490570816873053,-0.7978253730538698,0.16077541470564163,0.15026435451387754,0.3671741482940708 ,0.31385945599771614,-0.2683644657252023,0.5821243284589116,-0.08437820926391792,0.974693991129316,0.927758471713094,0.44046095103684135,-0.7981801966777767,-0.6348966299174594 ,-0.3715499011337884,0.6713269657926788,-0.8332483461032443,0.6938973302261253,-0.5516912045016413,-0.17722479013986442,-0.7452248847905025,0.737595456054668,0.3832636264401313 ,-0.5964716327763144,-0.6303763267743585,0.23729779456692235,0.4950134343318257,0.05483232784796827,-0.12329820543083557,0.03182844747003238,-1.0081168619619145,-0.6122260669103786 ,-0.5336838576840854,0.42194130722768963,-0.9947412871524326,-0.313359902686341,-0.2985513407449014,-0.6123186183939501,-0.39009988808580254,0.9222619295574449,-0.7611470492569059 ,0.6950273640869271,0.5093751826579844,0.6088961980952678,0.5968691336718281,0.8119947954098852,0.8464793251492999,-0.6591003597518093,-0.031751815895706255,0.13286915329750376 ,0.14876736106879318,0.7259601131783279,-0.26510575032945255,-0.2904114600893642,-0.35416024523637585,-0.45152950030761146,0.5159565399293012,0.1751890291756012 ,0.3853265166828523,0.5360015881195955,0.22410336423026897,-0.954737916940368,-0.5616440958545014,-0.5233499197808393,-0.040313154635332096,0.3209434164211106,-0.12047042784126476 ,-0.4171900361511116,-0.4999467017776244,-0.9794761293631837,-0.026676567563228337,0.742450626163568,-0.05922588369018267,-0.752428967461821,0.27092588030052306,0.7586310648678346 ,0.9935988787514882,0.49806298115321657,0.6963646420588891,0.18883514425801734,-0.5865554537729724,-0.5030296731050061,-0.618001714146041,-0.1793378034292546,0.09317002337773303 ,-0.8304209269087613,0.7771351321808861,-0.4969631637289434,-0.44337209530281907,0.6999932280995738,-0.07497777966114158,-0.006546426410721383,-0.4757566972683603,0.5811212028857596 ,-0.351609272665356,-0.4548015358493452,-0.35541056028153256,-0.17218869733358366,0.5649271624936391,-0.4058629573137841,-0.8779559260080204,0.6236632519867806,-0.05941683287432897 ,-0.08730436584159497,0.5063146725592629,-0.8848153376326658,0.9909567746458398,0.9276209146156472,0.818979036643026,0.677805073110028,0.1209929853838037,0.5498304568694959 ,0.6412095052543979,0.1527282070385427,0.8519748493543996,-0.008647921814309978,1.1803811061353902,-0.4437588206442711,-0.08226965573424462,-0.15726561119866092,0.059723742364992734 ,-0.588179530139229,-0.03918656063180122,-0.17926601905396874,0.437196185470264,0.7579390037710173,-0.5471915459412772,0.511358642293764,0.2566685543123185,-0.5331745951344768 ,-0.39473423046840234,0.05942019849696375,0.2501287797568626,0.44851736204051745,0.6182909308085809,-0.5936328709342943,-0.6624040699695131,0.18727465625641787,0.5944813109445718 ,-0.803357130860637,-0.9562411855598435,-0.6182579476502638,-0.8350823526040663,0.2822453990072734,-0.795461586233689,-0.21969343549619064,0.3274486179840388,-0.29129172921825175 ,-0.3093983486283767,-0.23109390679825362,-0.5055040134921367,0.5756399282181995,0.056550918597177174,-0.844030552577607,0.7341807600828965,0.8013477434328685,-0.5896925337732805 ,0.9804536924043816,-0.0719399923829499,0.12049133226530702,-0.5151424887379895,-0.35235525686291813,0.052947863283468365,-0.11114548829240081,-0.2801733480128654,-0.6133998451439698 ,-1.2940019342068636,-0.9154472438304784,-0.23477947138401906,-0.10450610266921218,-1.0734774241166098,-0.5820461627615344,0.03402632336005718,0.2646415044431337,0.14772398457307423 ,0.08310054152977078,-0.23767461786558075,-0.11851204016366026,-0.7701576429189239,0.2762434223157557,-0.053984945028742834,-0.2689492758695573,0.5468509873126343,-0.09502786415123009 ,0.9799443924250699,-0.3454647424211242 ,-0.35371194274874157 ,-0.8185719867394622 ,-0.8358694604546855 ,-0.031296254534553584 ,-0.17637506722939642 ,-0.7829351943999882 ,-1.158050044374439 ,-0.8602479601197954 ,-0.544616685867444 ,-0.3313602769064221 ,-0.36433879343060305 ,0.05426876762511689 ,-0.028835296467703497 ,-0.3554089858246668 ,-0.49654617377721305 ,-0.0618588182799953 ,-0.2367079774445407 ,-0.4611735350962949 ,-0.1589030645074021 ,-0.2696453701991027 ,-0.29629066289277456 ,-1.06366419761756 ,-1.1706051628565866 ,0.3415808686413499 ,-0.07840655615401963 ,-0.9125586822715309 ,0.9385862448261564 ,0.9252365348918488 ,0.21805514794240946 ,0.778590722555546 ,-0.08965563819863195 ,-0.44820977868698125 ,0.4943714363310821 ,0.25674458376604464 ,-0.6974165764612693 ,0.5055419782930394 ,-0.6788892767086044 ,0.17396260258800944 ,-0.8655255536202978 ,0.44790597645681374 ,0.32141106911205264 ,0.18605814200282864 ,0.4740795115259969 ,-0.5346029222627231 ,0.39578023721085354 ,0.07145478347748956 ,-0.32682244608329203 ,-0.4635302368617331 ,-1.2062364538988064 ,0.24252812818901934 ,-0.3213762183564675 ,-1.5048430119526428 ,-0.19539568883183986 ,0.5728858902900197 ,0.5194510727086327 ,-0.940004540457266 ,-0.6314618748020046 ,0.9034299204839262 ,0.6367375631746344 ,-1.1410860510652072 ,-0.5114191355397696 ,-1.0308409095529691 ,-1.3596244323212991 ,-0.7852532537363245 ,0.4948931576197926 ,-0.3949313371254985 ,-0.06865331894693136 ,-0.14246810561250334 ,0.21579609884443685 ,-0.3170764486191397 ,0.3260687601429523 ,-0.028527024184920233 ,-0.10477731957543239 ,0.06428245121659157 ,-0.11463360749550977 ,-0.8818050761894946 ,-0.08529234128885814 ,-1.6548673066830712 ,-1.7404290565295752 ,-0.2571959685331583 ,-0.9000630890250619 ,0.4917419855762396 ,-0.9773464211456409 ,0.8577861167827596 ,0.21861094178353196 ,-0.461480480801811 ,0.5229451664413832 ,-0.21584568673407847 ,0.3801419157769464 ,-0.8397156803391889 ,-0.017581146654850152 ,0.9694374365849133 ,0.9050624666012841 ,1.1516228376552764 ,0.3107100656398044 ,-0.38500642894080167 ,0.41417959393628917 ,-0.3011555493451764 ,1.0828997788605113 ,0.49646796544941446 ,0.10766494589496975 ,0.46115410326015904 ,-0.6347965546626858 ,0.15179693324656535 ,-0.6569597975477558 ,-0.3775191298000557 ,0.0413365840560665 ,0.04911885885992735 ,0.05218142443524584 ,-0.10666664565402394 ,0.2232741670488574 ,-0.4530853763135292 ,-0.0675346583072176 ,0.2988260665363359 ,0.07536269772277672 ,-0.9884112747403608 ,-0.16996813525591292 ,-0.750336347769961 ,-0.14486152285104492 ,-0.09486148573342768 ,0.20864343170620336 ,0.2779809940487642 ,0.04719521292351029 ,0.13598517173332192 ,-0.42287597133942634 ,0.8372270624964931 ,0.19668871238162194 ,0.5121420890626591 ,1.0803699369215987 ,1.2020548762268077 ,-0.5120873444336317 ,0.3056564011244886 ,-1.2398446563688004 ,0.5404709297114376 ,0.31664113320437914 ,-0.8673667854707885 ,-0.31553591334964803 ,-0.9173376243968743 ,-0.12219206448161668 ,0.4739164016011905 ,0.0031177610476626006 ,0.6862526990532786 ,0.5370224413919098 ,-0.542615593856669 ,-1.095562044781609 ,-0.8256790617046437 ,-0.7525338799530193 ,-0.06482154348389522 ,1.1599965690418113 ,0.8945801763179638 ,0.5815825079705146 ,0.3738221382253826 ,-0.245361142109619 ,1.0987438249743215 ,1.5110133084665696 ,0.3945037293553408 ,1.0339066488891682 ,0.6203375705915617 ,0.7050817019253778 ,-0.6027445519356487 ,-0.3540503890900845 ,-0.5611470494451263 ,0.25220259286095054 ,0.6426875077027521 ,-0.4323315541045176 ,-0.5164933479670135 ,0.16572774503780113 ,0.332235251315667 ,0.2197914149572475 ,-0.5028921465367546 ,0.9213211621339813 ,-0.02213788328499433 ,-0.2512886778950761 ,-0.45880865050858544 ,-0.10383636282628829 ,0.32389346770911875 ,-0.5166070421064103 ,-0.8709366561465346 ,-0.1661178140722834 ,-0.2437252174303889 ,1.4225973650770738 ,0.8067136853967194 ,0.6124987290194013 ,1.1182309522907694 ,0.8718491399004897 ,0.9723967570742655 ,-0.47269223944292854 ,-0.7523043273032823 ,-1.2938271513393282 ,-0.24370649903377742 ,-1.1341179696677635 ,-0.09864837100090666 ,0.6486014845865724 ,0.006763916437292148 ,-0.5256856473696861 ,0.8120001476842631 ,0.0793755410346222 ,0.18947561140267324 ,0.6693040315265135 ,0.681677829213549 ,0.10506649143874502 ,-0.2817358866495404 ,-0.4400386931680986 ,1.0878883529526513 ,-0.2280547324976727 ,-0.11097368742339593 ,-0.10620965171486199 ,0.2735423675137092 ,0.10585471605987495 ,0.18058719144534702 ,0.6159273649272796 ,0.15481120077375618 ,0.990686667789268 ,-0.9354073037949394 ,-1.488551248808696 ,-0.9446716140687659 ,-1.1654485648374189 ,-0.7046624942199238 ,0.19249776304514454 ,0.46859795879480015 ,-0.18845324837113792 ,0.07944292839375706 ,0.47982921718492444 ,-0.9762592202694242 ,-0.1521626977966787 ,-0.7809760565344265 ,-0.007012747680162638 ,0.41542722168680296 ,0.04742793629298923 ,-1.0912922857211018 ,0.6174962244636562 ,-0.3534069286031027 ,0.5424018685704977 ,-0.5363008704424872 ,0.7308088914126748 ,0.5245151317268993 ,-0.44777374286663296 ,0.6141501446152543 ,0.18558384163124994 ,0.16942281727560038 ,-0.02805098406123728 ,0.010676317630618404 ,-1.887778882667434 ,-1.2169271515506392 ,-1.0118216611126796 ,0.4606507112810934 ,-0.5444141685545429 ,-0.6629306183216521 ,0.9651172595546039 ,-0.8577623049165866 ,-0.7456122725339236 ,-0.2824402613865671 ,0.4438721848005598 ,0.9000419452947287 ,-0.42881964194706085 ,-0.06397151336888632 ,0.46384561393851126 ,-0.13328582180180212 ,-0.14130508453506208 ,-0.6883474835949271 ,-0.5924255547634221 ,0.2143259934456338 ,-0.10909941056507796 ,-0.15809550642497125 ,0.29596182479311267 ,0.18016492830514658 ,0.18284020390043768 ,-0.49841602324126544 ,-1.0556108636446793 ,-1.7864913343861253 ,-0.9685275502821089 ,-1.7585614963534217 ,-1.0791067020176348 ,-1.2240582077891886 ,-0.7281507678138818 ,-0.36147858403353833 ,0.9417054056034152 ,-0.6711585916876652 ,0.8108499170168662 ,-0.4536525509026354 ,0.44106258402521614 ,-0.5994587991108506 ,-0.9965570038122237 ,0.7380555400032455 ,-0.21159924465658844 ,-1.0400848384547343 ,-0.5811310969756269 ,-0.6651784542123962 ,-0.4777368137212392 ,-0.19644594962054215 ,0.20237668509230305 ,0.509849205744399 ,0.10713618656072078 ,0.27081915826181 ,-0.10160984265833006 ,-0.3658161652004805 ,-1.2460184055960535 ,-1.0149893010416402 ,-0.4923301562587579 ,-0.001908238912319291 ,0.21992713771539912 ,0.2169653313758824 ,-0.19514500849346428 ,0.4335193759960617 ,-0.3973334793315939 ,0.6030157375742111 ,0.9375034530538869 ,0.6436239543856866 ,0.07034415154715115 ,0.7186317110227032 ,0.304391114071947 ,0.31094904533881856 ,-0.45535767817966455 ,-0.5356300626725788 ,-0.12974082428153944 ,0.14167683331802866 ,-0.8833267985080606 ,-0.11920075093125193 ,-0.9225164600849631 ,-1.5304537087364223 ,-0.9404172503581056 ,0.7579759006080481 ,0.37360044627912276 ,-0.018955376594593298 ,-0.8698798889153887 ,-0.9504815683297506 ,-0.5436229074927422 ,0.6008096033380731 ,0.018051261374846975 ,-0.1913003804421708 ,0.7454000933217334 ,-0.552612807853431 ,0.0877336732736498 ,0.2691442706551383 ,0.4055277121123175 ,0.390715238257785 ,0.22774097516312317 ,0.06296497203275611 ,-0.1688925285021259 ,-0.7343723948604268 ,-1.2510525554875087 ,-0.2089190394661007 ,-1.0680479295528231 ,-0.9763186373214062 ,-0.5478615834876199 ,0.16571177579416244 ,0.44820753002340097 ,0.5209460965446666 ,-0.32668280712384185 ,-0.5577913621035271 ,0.5126075014851382 ,-0.030734573114034318 ,0.8534671268164562 ,0.011597188212151931 ,-0.07359425526547779 ,1.0313348043132795 ,0.5719543537858877 ,-0.5966271520332115 ,1.0153012328008015 ,-0.24840216438880397 ,0.5251963907421341 ,-0.44804316077251544 ,-0.6509931529314051 ,-0.13878455901534714 ,-0.0879698726358049 ,-0.5188749133296483 ,0.6518735057566557 ,-0.90929191365655 ,0.5134259112239764 ,-0.7403791143419494 ,-1.0579645902657444 ,0.8038996048505109 ,0.2919803776890494 ,-0.5426277301747428 ,-0.9279068544776288 ,0.08215792645206645 ,0.3968861391852795 ,-0.15276221119847883 ,0.2374157050821079 ,0.43249876501901896 ,-0.0701156154422254 ,0.5645615639278092 ,1.2325104717073803 ,-0.5667741739128266 ,0.022367227055673792 ,-0.3851090356271943 ,0.32549230694710435 ,-0.04956097320672792 ,0.7787329515213114 ,-0.9833066254248445 ,0.005508861047312857 ,0.6957344634545963 ,0.9879504692629621 ,-0.08448386431194115 ,0.36610538710754653 ,0.007081327060209157 ,0.2583208498377989 ,-0.4107108363980907 ,0.3068077192664587 ,-0.404470451165527 ,0.6404244710441778 ,-0.8625254509396834 ,-0.3160285104294009 ,-0.2888943049514982 ,-0.51488333211104 ,-0.8996067076611757 ,-0.8429670992179362 ,-0.3418552784633786 ,1.169607808194526 ,1.2662476999796075 ,0.8312588861853909 ,0.11812594246475887 ,0.7531584239201234 ,0.25211575248645474 ,-0.2682919507874885 ,0.5198361157636409 ,-0.9180966072375639 ,-0.3751489670982216 ,0.4437801037637017 ,-0.8410376467370537 ,0.9154901807066269 ,-0.5536889695109446 ,-0.09521730051845691 ,-0.5516963352214732 ,-0.5462112182438165 ,-1.1128127096016407 ,0.04241308540537516 ,-0.5220920816180192 ,-0.23931288943642837 ,0.22973649014381162 ,-0.5870767515235215 ,-0.5680765446041143 ,-0.6255857647676369 ,-1.0610614033216985 ,0.05303299483026871 ,0.16948335326592806 ,0.0003220899490509743 ,-0.12325652706223612 ,0.5517125763399509 ,-0.8251581064415957 ,-0.21573358679229943 ,-0.14849182364855862 ,-0.48331193014819873 ,-0.19415352035108815 ,-0.5236336187029448 ,-0.9896089579312707 ,-0.7724143769128371 ,0.19026434005830994 ,0.662426768766855 ,-0.2784126770905255 ,-0.3164834372191219 ,-0.40282352402892335 ,-0.8372951983745535 ,-1.0126380628653524 ,-0.3882571678085784 ,-0.977710825472378 ,0.23019655170415318 ,0.002287876973100058 ,-0.6860190414499494 ,-0.8624864486356317 ,0.2819715370603688 ,0.09155738438126065 ,-0.46052594917465034 ,-1.0546501984257062 ,-0.7610249207622687 ,1.0026293187176674 ,0.02032665186279344 ,0.06300207456800531 ,-0.5012722049366448 ,-0.6240545562546217 ,0.9815703826974526 ,-0.5250009150065024 ,-0.3179352010791329 ,0.5226191588131811 ,-0.4055802679220608 ,-0.1785450916169944 ,0.293159915793473 ,-0.3079142484596444 ,0.9146322759006292 ,-0.22215782985629592 ,-0.13475288140770425 ,0.7137007239050013 ,0.4638654766815397 ,-1.0825069422837823 ,0.25317213964436464 ,-0.9208135787257459 ,-0.5866874913412153 ,-0.9041769890417505 ,-0.7544620213363861 ,-0.37006975488246974 ,-0.6353523566011059 ,-0.014822417418096775 ,-0.7612159407717837 ,-0.6384590351322443 ,-0.28485346224941127 ,0.5775901635962123 ,0.3333580762861662 ,0.6936897834811394 ,-0.04963578322305979 ,0.6461761642342986 ,-0.15493286589896293 ,-0.9706796322108615 ,0.7933785017150654 ,-0.4802792754483125 ,0.38125469728365236 ,0.6746526957072874 ,0.22190993985954868 ,0.2514418508994153 ,0.8671879092987944 ,-0.3586671692625186 ,-0.1387563487512907 ,0.880565209578381 ,-0.7557021711507418 ,-0.4483124329102095 ,-0.08512215385637678 ,-0.5877056440253756,0.45598721347985416 ,-0.728489681651149 ,0.5392138264785025 ,0.4963235768740089 ,-0.601261028440047 ,0.19654872492855927 ,-0.9782899271044955 ,-0.41016848738418277 ,-0.40244501170158337 ,-0.9084684135097735 ,0.5866505823251081 ,0.36229298436141255 ,-0.47275503294328824 ,0.10485396873335207 ,0.10532014050459693 ,0.43602947353365185 ,0.9006993101540233 ,0.27800636369674825 ,0.18519986579534198 ,0.7690452171163896 ,-0.8246831409878942 ,0.5491091517601151 ,-0.7811118463187972 ,-0.5230757414323589 ,0.8343770355273579 ,-0.876018783732363 ,0.34246864457691095 ,-0.005896887073099178 ,-0.46732652342883113 ,-0.5507442110510169 ,0.6518080224617441 ,0.4739062166815516 ,0.7043345741431778 ,0.4096747863812141 ,0.5398970397408649 ,0.8438026584238238 ,-0.08328955986740272 ,0.9752316224616091 ,-0.7329341271471106 ,0.09254422335872525 ,-0.2510259598021196 ,0.5365647939946567 ,0.6751063804466573},
        {-0.7618829365014199 ,0.27373777919485587 ,-0.1011182996875124 ,0.6339250647222483 ,0.5729505146998493 ,-0.07734103063344211 ,0.05887769252877417 ,-0.95068739042017 ,-0.1735167243900646 ,0.23152660554949067 ,-0.8981741710065663 ,0.7258405075902401 ,-0.6354785114837093 ,0.9142695262109523 ,-0.3905017203943903 ,-0.35234455511737384 ,0.5468312071428214 ,-0.4942998164974375 ,-0.3379250231536699 ,-0.7946380313019188 ,-0.8965348899737393 ,0.41663157099403825 ,-0.690380845783731 ,-0.3175010617575629 ,-0.6244781006117126 ,-0.47855488368419286 ,0.8010078970416052 ,-0.07295231771883204 ,0.12975598935762633 ,0.4781896057592585 ,0.445025762460153 ,0.5836084287137921 ,0.16581128463585165 ,0.022154638778526647 ,-0.3060419512353208 ,-0.3441550138097728 ,-0.4928441321800918 ,0.4324199887997849 ,-0.6837597577100524 ,0.8798573613733837 ,-0.5148385335646184 ,0.690723654756509 ,-0.6069845478975989 ,0.6475780538854511 ,-0.9748195584204286 ,-0.8772555108807852 ,0.18355555867126658 ,0.6913341187432624 ,0.21811899613962255 ,-0.09229037407778064 ,0.92136083170548 ,0.2670867506992723 ,0.7709479468870388 ,0.978013662363445 ,0.5499210746775323 ,0.047218639457000444 ,-0.5029740829815503 ,0.40314955307968803 ,-0.9513998287595828 ,0.9448318064477886 ,-0.4222436141126914 ,-0.02606902090761308 ,0.23563533447572915 ,-0.7061208422474523 ,0.652980339503534 ,-0.5777380028174263 ,-0.7143201116856216 ,-0.8499886481389805 ,-0.7141908142565958 ,-0.7143601409082222 ,0.7522625387265158 ,-0.8248101765791195 ,0.5834511176059599 ,-0.3672385588102342 ,-0.2855560272537046 ,0.6821349792399531 ,0.9419060450543525 ,-0.5487273198449044 ,0.670429564979865 ,0.5560433043656263 ,-0.9159395902205378 ,-0.7470546739376596 ,-0.9047752716407162 ,-0.03727843122519814 ,-0.2905827764803375 ,-0.6823565912036862 ,-0.2927672596247221 ,-0.0640058417453454 ,0.7682197893218311 ,-0.21554988672122666 ,-0.6707894804585854 ,0.7408555051258857 ,0.835377737117216 ,0.3548930372147758 ,-0.34278013016751796 ,0.14835576499362912 ,0.62891322137166 ,0.8264885991121521 ,0.37625206569333647 ,0.23637324637649665 ,-0.39577419633794403 ,-0.23819608420334684 ,0.832183658178439 ,-0.5438700404176983 ,0.5685064867385469 ,-0.11537232010634693 ,-0.813407068655456 ,0.762474115974622 ,-0.12364729998691175 ,0.5236950767862262 ,-0.769354387272697 ,-0.08618323478953549 ,-0.6609311462993601 ,-0.8786297883300361 ,0.8648078229272637 ,0.3456575060329336 ,0.8442752906879296 ,0.16600123049749588 ,0.7822443763905808 ,-0.8640233846792545 ,0.2574738950268768 ,-0.6544646376316743 ,0.15700035538911364 ,-0.6408119680404145 ,0.05760322380920998 ,-0.26161152204718097 ,0.6783064133513615 ,0.7464223558656686 ,0.7331593791489132 ,-0.013538756687014453 ,0.4527056886473392 ,0.80005912965228 ,-0.11675491369397872 ,-0.07117447884893699 ,-0.1577544746514113 ,0.7167730203606054 ,0.696488257660099 ,0.8077528443253277 ,0.37283187254932987 ,-0.7760639029343486 ,0.8955338167686038 ,0.7003627842709153 ,0.46118378763546536 ,-0.27984326950540833 ,-0.4423249102954108 ,0.689426897740405 ,-0.29863086852048026 ,0.8155709550597919 ,-0.426636108856209 ,0.33018979467219234 ,-0.7675698129001642 ,-0.11549187518311414 ,-0.8396610947349387 ,0.3096004626514226 ,-0.09626764338451999 ,-0.7919640795113342 ,-0.5881535825655894 ,-0.8373570081624551 ,0.4914925000275802 ,-1.2325271386348078 ,-0.0690187310615088 ,-0.7396191956970938 ,0.5926038896580973 ,0.3831221647035367 ,-0.5354008404320656 ,-0.8850276082830879 ,0.19310512945219105 ,-0.4159709136609356 ,0.20537318000132387 ,0.5803003918529026 ,-0.8534778012679791 ,0.39328026843327824 ,0.6669697292105465 ,-0.7272873072888102 ,-0.2932921968872058 ,0.19117814521592716 ,0.37238629310639365 ,0.7728726730005564 ,0.5804532949337956 ,-0.3338658431277627 ,0.0986295769593495 ,0.9186346051619825 ,0.1822061289037682 ,0.234556556685903 ,0.6074784261877286 ,0.19537680103325172 ,-0.4962668402182618 ,0.028906774406326385 ,-0.37313423745796487 ,-0.029362859679774606 ,0.2525135812434281 ,-0.49623781480700746 ,-0.7553430123417235 ,0.8082777316258637 ,-0.6219679459839585 ,0.25126728097797396 ,-0.3148249265488488 ,-0.40728998134826344 ,-0.7406216992615211 ,0.45520525662649536 ,-0.6728609185424941 ,0.048978181741327474 ,-0.6916068732433783 ,0.788890143499756 ,0.6312253197736828 ,0.28809626318199555 ,0.9448868790149787 ,-0.28443657056104893 ,0.3167008051778553 ,0.2890605987288965 ,-0.1847765218018096 ,-0.7562927612496563 ,-0.25933131070695187 ,-0.556936507036942 ,-0.3874345789135913 ,0.3809281456103289 ,0.6798620863105519 ,-1.2586608755757351 ,0.33625422114053977 ,0.04148038882595479 ,-0.24006408901963683 ,-0.8579136894074474 ,-0.7714990634605702 ,0.44484147404895363 ,-0.7116166151071492 ,0.5067791766039245 ,0.4766258090946997 ,-0.7223392449863768 ,0.19396741280807656 ,0.8480788857305332 ,-0.4860407579675009 ,0.23510197972570662 ,-0.3880746426715461 ,-0.34000055004486507 ,-0.11861576204716719 ,0.7760513095993766 ,-0.32952926099010654 ,-0.9219325624234793 ,0.33271979484328634 ,0.5453278874282446 ,-0.30153795159241237 ,0.607794768625871 ,-0.29967935106240373 ,0.3830125378863113 ,-0.020637482211196982 ,-0.7288666190558749 ,0.363598433529077 ,-0.7303363747765764 ,-1.082130243085234 ,-0.611209038481853 ,0.7441949380505246 ,0.8542266738665657 ,-0.9684830817984467 ,0.9559509686744012 ,0.5950221817986998 ,1.1229183706477615 ,0.7725275190695636 ,0.16431415091240115 ,0.82878422672514 ,-0.8951247776809241 ,0.0172299264830171 ,-0.19645121916751712 ,0.7123954350002841 ,0.14275159629181144 ,0.6731093253925027 ,-0.2961314225207607 ,-0.019497162755114504 ,0.7190715999098679 ,0.02297838517945899 ,0.8913471077790598 ,0.16261603382910586 ,0.8973766004230564 ,-0.016807693092393022 ,-0.09839211097917838 ,-0.8758037753235721 ,0.3416271390661828 ,0.5637033538181692 ,-0.8826134358389202 ,0.6808465356401132 ,0.1745046516198228 ,0.799113236799437 ,0.9480832695407954 ,0.5288808253366967 ,0.47430757675360924 ,-0.12651302065074535 ,1.0408828529351 ,0.698692064290526 ,0.38783483281909487 ,-0.14905994839968914 ,-0.016436499834382407 ,-0.8085649088264203 ,0.5872042825468452 ,-0.8553760690775843 ,0.7947868613932972 ,1.4871890075848657 ,0.2156584630236795 ,0.5833155047706635 ,0.36589211701034047 ,1.2393130036296647 ,0.18143474725656153 ,-0.3584653353228769 ,-0.49043403287212317 ,0.5353756906453724 ,-0.7414129937451289 ,-0.599573054257615 ,-0.39779637115062483 ,0.47948839007539407 ,-0.7051444353200004 ,-0.4407487788180305 ,0.4436842556674613 ,-0.3209384572410819 ,0.5240561622575642 ,-0.1702573966517479 ,-0.31813714854891395 ,0.5400378534183897 ,-0.22488647937876335 ,0.05392060115739957 ,-0.7510271845420136 ,-0.984455854305063 ,0.20486732532046487 ,-0.0013734553267188323 ,-0.10483957164538482 ,1.4445875473490393 ,1.583357027048552 ,0.7144412944456628 ,-0.1052918798081669 ,-0.09407043623871736 ,-0.2241508928358889 ,0.6026641962051662 ,-1.0013764904842593 ,-0.9384907384775459 ,-0.572803939438996 ,-0.6482184380480757 ,-1.034315496351647 ,-0.7043512914635279 ,-0.6368226646459788 ,-0.3735407371676767 ,0.33109776825515497 ,-0.7644192809822548 ,0.5322338135930151 ,-0.8784264450110018 ,-0.9462401364418136 ,-1.105038422798838 ,-0.6154741541703967 ,0.007718437594510715 ,-0.07775000056039845 ,-0.8138705909283943 ,-0.39031756174438886 ,0.9879601910701526 ,-0.48893608396586363 ,1.5116352047604316 ,0.16813050916986558 ,0.4657139284750124 ,0.7151936021543398 ,-0.2507803381918649 ,-0.7689009883863155 ,-0.1919194237261984 ,0.27603153635640204 ,0.0457116987437681 ,-0.9258660579241637 ,-0.27313331286851955 ,0.42108906793506307 ,0.062189964311564455 ,-0.7808816425844838 ,0.9432157388844036 ,-0.7912468124798042 ,-0.0036154756635113153 ,-0.24441394933576238 ,0.5315735564877611 ,0.5928370622785817 ,-1.1152146048615812 ,-0.3619412037982918 ,-1.3862047041297894 ,0.15351656944418288 ,-1.330473183024169 ,-1.3583267617224148 ,0.49246957667618857 ,0.7551343593187378 ,0.17093277550919456 ,1.1489290849864964 ,1.3647984063036223 ,-0.10253189090375299 ,0.22572949618291932 ,0.33276503521316636 ,-0.26017819249596946 ,-0.40627873808378084 ,-0.6135823437807096 ,0.48917008077416013 ,-0.15572684998812647 ,-0.7003712531125058 ,0.785473109412871 ,-0.9653148286751414 ,0.10990061518859728 ,0.6129084654737231 ,0.11784881728180135 ,0.3966846754393392 ,0.7833077647862895 ,0.11765154102832653 ,-0.7898936628613595 ,-1.1042402387216395 ,-0.41542922661910564 ,-1.0959381583902807 ,0.157849497335699 ,-0.10687646213162012 ,-0.3069716301412556 ,0.04538421542057878 ,0.9764120603977003 ,0.06178423550057339 ,0.8112304613126018 ,0.12464470987248419 ,-1.131360781896097 ,0.31497373914070337 ,0.16785813659043372 ,0.6254407384811713 ,0.715234135985375 ,-0.6978090152786391 ,0.12392711644580472 ,0.4696296420799566 ,-0.03550686384206244 ,0.379997617516707 ,0.3145861816457529 ,0.8254886028434385 ,-0.17170879329605357 ,0.7938251895599437 ,0.5762470639915511 ,-0.7110655832807435 ,0.10149891622271123 ,-0.6922089394064015 ,-0.4273065580694557 ,-0.824339321326885 ,-0.7213453688722922 ,-0.8868808747892442 ,-0.40640716200479227 ,0.4572046849828005 ,0.7732626460851704 ,0.9481645545775261 ,-0.25616968304602594 ,0.2680300333240421 ,0.7002708621061987 ,0.31324661090046463 ,-0.20188521339560325 ,-0.5056778458021379 ,-0.7069284966769853 ,0.8473905861969526 ,-0.3295310590475828 ,0.552910041682911 ,-0.015765201829505554 ,-0.6813179237351864 ,0.15814906399139855 ,-0.3795746089781138 ,-0.46369466813418875 ,-0.8991737783929413 ,0.5855185360859148 ,-0.8633662146232735 ,-1.163137828418001 ,-1.381313552836328 ,-0.5590815149882224 ,-1.0367797495894764 ,-0.7861658631136483 ,-1.297924651735103 ,0.412573179395093 ,0.18126155140604144 ,0.6811734180544519 ,0.13875705430507482 ,-0.1723313196533046 ,-0.2797052113444997 ,0.49901833446731436 ,-0.2031569080677623 ,-0.6671847221291958 ,-0.24098621649948723 ,0.788745226569949 ,-0.552080852561175 ,-0.22371630830549938 ,0.08800971884003102 ,0.8877119867044703 ,0.2764490844460628 ,-0.5000461542040224 ,0.7206451203994819 ,-0.16536554253181024 ,-0.46270705253930233 ,-0.4099853776293307 ,-0.7417490892466432 ,-1.30401302466899 ,-0.6622661061821704 ,-0.7078810457023534 ,-0.21742156126590126 ,-0.6562641887406152 ,-0.6620896185453636 ,0.07450692251869484 ,-0.07619112683453863 ,0.5210659108421942 ,0.5691194740926344 ,-0.4904620462120522 ,0.5107522333774662 ,-0.7407288048163759 ,0.6880391546821422 ,-0.014895520679574056 ,0.041615734371665616 ,0.29235016206006603 ,-0.5285460729190083 ,-0.86830468832785 ,0.5464368311611983 ,-0.6545230544124864 ,0.18794120393699576 ,-0.03449023726704259 ,0.772083345415647 ,0.602541108196366 ,0.9044529401376542 ,-0.19749259450395096 ,0.423511198295718 ,-0.08509260129839112 ,-0.1920402857715873 ,-0.4768964404872205 ,-0.48659555842679353 ,-0.413820873834542 ,-0.8651885025985765 ,-0.12782940721104205 ,-0.7976365177670715 ,-0.16546054625638842 ,-1.1750518916605932 ,0.5368500133069729 ,-0.6991809141992869 ,-0.0006174159947667884 ,-0.17720213614269625 ,-0.09285599610590986 ,-0.05928558012719935 ,0.4215470508065079 ,-0.34668931851944274 ,0.3968379113369868 ,0.8847295974435563 ,-0.09831957768578747 ,-0.9760323181790082 ,0.5250326522668182 ,-0.04428360516863847 ,0.8716724038828503 ,1.0418657841506656 ,-0.05865877242185315 ,0.6542898325117094 ,0.0031381654091656866 ,-0.7498843988420775 ,-0.976539233180192 ,-0.8211291434225627 ,-0.42140856344676997 ,-0.699823436520593 ,-0.24435553790369915 ,0.622769881033324 ,-0.5265604808878506 ,-0.37389935507909805 ,-0.32212159553569014 ,0.24479326506295865 ,-0.2023400009979539 ,0.05839651227391584 ,0.060509758101311394 ,-0.38026476482368765 ,0.12565852104245243 ,-0.5277926064246254 ,-0.7977015007446835 ,0.9046836864908876 ,0.14489237208850525 ,0.21572746461482262 ,-0.44131331978642674 ,0.19700025518945558 ,-0.8333864466257332 ,0.5139319332384306 ,1.000761437632587 ,-0.07672170026657155 ,-0.783314195674699 ,0.5720744697477727 ,0.882144176631455 ,-0.8648560696180201 ,0.27907309257924817 ,-1.1453566555231454 ,0.6479649766461535 ,-0.0027243110581170937 ,-1.1519115147749457 ,-0.7129196912577539 ,-0.47749753121656957 ,-1.0725818910329774 ,-0.8333169494621048 ,0.12654883871023884 ,-0.11177803822243651 ,-0.45573398945091936 ,-0.4487422975337205 ,-1.1732193700936115 ,0.0728104583063715 ,-0.26917064251077133 ,0.5251543183887319 ,-0.5541739691746546 ,-0.005147298452731778 ,0.8243032571303909 ,0.6405745243403549 ,-0.8393654805298232 ,-0.22567963037029629 ,-0.4396299350277707 ,0.5937063053258577 ,0.36504195905169246 ,-0.708122992547831 ,-0.49882434442779255 ,-0.6575774309274782 ,0.5433905813604925 ,-0.5952111237958804 ,-0.7927963930537394 ,-0.9092598259778373 ,-0.7877612398372904 ,0.3383497495236705 ,0.003026913123153818 ,-0.6447900735081802 ,-0.8105211587704341 ,0.06634791816885985 ,0.20874424435449623 ,0.43487414100874794 ,0.17210452757839304 ,0.005797456471365283 ,-0.1714586729950906 ,-0.04390995097930134 ,0.016207832046323662 ,0.6622517787722481 ,-0.5374821873132761 ,0.4304015085020378 ,-0.03104359478656351 ,-0.6077844048521717 ,0.6526853275309825 ,0.21469638511929626 ,0.7346814492833468 ,0.8838404140564032 ,-0.07721006587657575 ,-0.7336485874410055 ,0.3183053989792392 ,-0.09762040056994217 ,-0.0732766379133944 ,-1.0507450130725142 ,-0.38341849829071295 ,0.16756128694941394 ,-0.6102495561871907 ,0.8648819162979415 ,0.09550680790336369 ,-0.7241967554414594 ,0.12501420922934506 ,0.3832414450734923 ,0.43608663666978437 ,-0.1931732421372901 ,0.5528616556861133 ,-0.7035125787085392 ,-0.78556282593461 ,-0.727992901897202 ,0.4155885604315934 ,0.9000646481046403 ,0.7427771454856387 ,1.0823681358863706 ,-0.6320729167382733 ,0.5541481076206966 ,0.6045079195379549 ,-0.4209987973858632 ,-0.3119246682552614 ,-0.8838232691582679 ,-1.3263610138142452 ,-0.34961748834147155 ,0.300468186922699 ,0.579325875109017 ,-0.3621865089511482 ,0.6408586811276366 ,0.25792326368237 ,-0.1584280912350543 ,-0.019514193349811557 ,-0.39627644149594077 ,-0.14829596537938305 ,-0.9491858519494537 ,0.4994745979319002 ,0.31636487563101756 ,0.8945988157084334 ,-0.08702021291008347 ,0.24155194692821524 ,-0.9890904891070704 ,-0.9898023111268988 ,0.0779776366115561 ,-0.8941705064516998 ,0.15354271669820044 ,0.8859686574448076 ,0.38200839555247407 ,-0.2387541867791121 ,0.8865664754981071 ,-0.9278931381038662 ,0.3467340721469562 ,-0.009653130696323363 ,-0.5685857118613579 ,0.03972466372768065 ,0.2926443724587615 ,1.1572883493199837 ,-0.49110169135452675 ,0.7142967109190484 ,-0.9009309777344765 ,0.14934224069144103 ,0.5615817694556772 ,-0.8840452463315736 ,0.050723856140551936 ,0.41111350417795745 ,-0.7629528483567565 ,-0.7255179271636799 ,-0.2948579674702439 ,-0.45363824043713263 ,-0.9567563793834608 ,0.7970852635930441 ,0.6605436269625642 ,-0.8797452270573364 ,0.10056669006746766 ,-0.5547377372470426 ,0.6826947347766967 ,0.023894338086033313 ,-0.5450869087951595 ,0.867202245475161 ,-0.727140548666658 ,-0.4818226772153554 ,0.45795666333219043 ,-0.7461992843084212 ,-0.5275909143667474 ,-0.11658897640446833 ,0.7398727141153363 ,1.0187607288571734 ,1.0831569945985287 ,-0.3707696430957278 ,-0.6914050292793424 ,-0.4759058972347923 ,0.22382652046150484 ,0.3318261259786233 ,0.5796520348441084 ,-0.848019687537292 ,-0.21484877046021306 ,0.05109657023832059 ,0.10425854506818544 ,-0.16008928796819544 ,-0.5314746964253485 ,0.9254505510612069 ,0.23715016414626153 ,-0.6918615296193059 ,0.08015574970061298 ,-0.2540607912523992 ,0.16314512462326883 ,-0.9612919118259299 ,0.2373787460985756 ,-0.23001878047420912 ,-0.27280834458920333 ,0.35185109618914195 ,-0.204164854823086 ,0.15999339825086611 ,-0.12189335600962557 ,0.30303096187050865 ,0.008918618383974878 ,-0.6895402426154791 ,-0.7136146359898687 ,-0.7886504819265797 ,0.017445254767386297 ,-0.35313194845715634 ,-0.2769917847747526 ,0.16369652814425148 ,-0.13541793756150633 ,0.43679952901776375 ,-0.19195259608485093 ,0.5566487130179896 ,0.6981389096674524 ,0.028869491976956985 ,0.926194451092896 ,0.010600423047550099 ,0.6422874705322009 ,-0.7476976531611275 ,0.8975925517184422 ,-0.45989858955842094 ,-0.5994908302580675 ,0.241837485683326 ,-0.8585897131877627 ,0.2900628410198647 ,-0.6462396480452711 ,0.07081576014348369 ,0.8213133977608811 ,0.41271193179040183 ,0.1318105373098855 ,-0.6507004394283857 ,0.959160640409878 ,-0.921484657964378 ,-0.2251534317217637 ,0.4210582981713589 ,-0.050567075789323734 ,0.3356753344241936 ,0.4459114805885531 ,-0.031637772003752396},
        {-0.08625157468426492 ,-0.9368073474318424 ,-0.15880391553090822 ,-0.1459778810907817 ,0.22331767531045643 ,-0.2976773656078091 ,-0.5256823325749336 ,-0.8720079202754802 ,-0.5781234007308251 ,-0.20080065309597006 ,0.6104358827838139 ,0.9737864007217578 ,-0.10789435279665326 ,-0.1524975515688237 ,0.5113006697388234 ,0.15556391542002898 ,-0.8775343887721321 ,0.7986130377035086 ,-0.18057044262119648 ,0.180279863830211 ,0.5207742398255788 ,-0.440020855425552 ,-0.7532747564005697 ,-0.5320081666595413 ,0.5928895162371992 ,0.9111697790894577 ,0.426136708708569 ,0.9720167285713217 ,-0.3785949950715357 ,0.04850605201135316 ,0.04931824582842226 ,-0.8673867262598103 ,0.4445442923825318 ,0.9940019454284104 ,-0.44782608435916055 ,-0.4424185810723715 ,0.9455563197086179 ,-0.18546111723068887 ,-0.19869715009178635 ,-0.7575853142682241 ,-0.9887375844917112 ,-0.9511900187446662 ,0.1825212805805634 ,0.9568373636126455 ,-0.3348630305003687 ,-0.06310849395697873 ,-0.486625918808466 ,0.5107247192388045 ,-0.20078173765663643 ,-0.2929859116107662 ,-0.6941158397676996 ,0.6862188706248828 ,0.24192168010548376 ,0.04948744403194483 ,-0.43294982863553133 ,0.47161358389974817 ,0.2417774252802587 ,0.34345628510671156 ,-0.681866553537105 ,0.7394079037420503 ,-0.7787057850638744 ,0.35513458189130204 ,-0.08480240907446422 ,-0.9703901998578363 ,0.9522511653715654 ,0.09375885263119955 ,-0.8734405781497957 ,0.48649936497124546 ,-0.9587745569961796 ,-0.46584289363430226 ,-0.23882702486522442 ,-0.13365157370585887 ,0.1724953173870773 ,-0.26100708954987517 ,0.12866998274107874 ,-1.0257530413559957 ,-0.6615916937590769 ,-0.47439408701377056 ,-0.8443565202301718 ,-0.24126802297140312 ,-0.6399215345495405 ,0.4219504635955376 ,-0.616383358557191 ,-0.19174477081468733 ,0.3471456239734061 ,-0.9432577627473293 ,0.5620782876736109 ,-0.4917886825694359 ,0.36021281448989384 ,-0.5482422420929578 ,0.9592820860367237 ,0.3764327744656413 ,-0.49692769105335377 ,-0.8589475575657124 ,-0.511779887085477 ,-1.004756986581287 ,0.3871658110466395 ,-0.6832709039972609 ,-0.16331304250337553 ,0.6010243313395431 ,-0.17886206021414666 ,-0.5029290792748257 ,-1.060075244314654 ,-0.24361459114195255 ,-0.5414128875260364 ,-0.520479865008598 ,-0.9342655190071346 ,-0.23851797584518475 ,0.6880392704966575 ,-0.16152967250076772 ,-0.020598980477485877 ,-0.7747347657639125 ,-0.48202974746627425 ,-0.5799052860868645 ,0.5936804138166729 ,-0.3832700425484951 ,-0.139941251602595 ,0.03472451168355949 ,0.5160691146716095 ,0.14671883977587066 ,0.6801232161453669 ,-1.066900736411846 ,-0.09746246813298538 ,-0.917254601364034 ,0.297577516298929 ,-0.1526346355262095 ,0.6904616811903963 ,-0.36625607712645514 ,0.686283702947382 ,0.563964395461263 ,0.4279051654434018 ,-1.192277458109126 ,0.2888701115714544 ,-0.12251971271853672 ,-0.29415541863342193 ,0.047777302604772975 ,0.5911744878114091 ,-0.16927990317057856 ,0.8018973002983658 ,0.5013934655414025 ,0.8811831792910745 ,0.6057908632645905 ,0.853477870992962 ,0.7964757015145517 ,0.3481811423849063 ,0.7863184565326855 ,0.7754600592918086 ,-0.2849493982856177 ,0.7745364469233326 ,-0.23073746326238362 ,-0.6886165314072394 ,-0.28039079554356416 ,-0.46994758314567164 ,0.6343846520782209 ,-1.1207616514686296 ,0.38063672376709273 ,-0.8921536344156995 ,-0.2524573259235243 ,0.6280366116228637 ,-1.004238838377688 ,0.26140091891827366 ,0.5899868439261862 ,-0.5518484677845126 ,-0.22316920989548752 ,-0.8801817468363603 ,-0.15456188676135588 ,0.004075492724898241 ,0.20393104910371176 ,0.8446250137389142 ,0.18013045920420098 ,-0.7001034067166741 ,-0.3925346000228495 ,-0.7272320011537068 ,0.08777856650536138 ,0.9213280238465453 ,0.32502008016120015 ,-0.4012823519021345 ,-1.1290055805959602 ,0.10424652320586086 ,0.4550155949523787 ,-1.237683319141551 ,-1.092839944255102 ,0.4909938666250472 ,0.44056374462866216 ,-0.1270561404969702 ,-0.22265434049199143 ,-0.26403029159222335 ,0.006998605891013336 ,-0.16208538382713733 ,0.49039466501595813 ,-0.759703955683262 ,0.27553269553144255 ,0.9677868232560126 ,-0.09733149158524096 ,-0.07115228259465432 ,0.7645618844760997 ,0.39228887129829715 ,-0.35435701620092247 ,-0.7556225681763628 ,0.6630889796057218 ,-0.9293550423813214 ,0.6627666185488224 ,-0.6042628186392379 ,-0.10878688110695002 ,0.6125965440164628 ,0.48402714072231334 ,-0.07678590782095573 ,-0.07677501711340702 ,-0.09022477349576878 ,-0.45657759061435427 ,-0.985566679724525 ,-0.7791961478770066 ,0.835574675735871 ,-0.22745426927724172 ,-1.0683188053347656 ,0.1725849958320027 ,0.042058343139989206 ,0.06150218922450588 ,-0.6348860430404935 ,-0.6420382677325226 ,-0.250849884204435 ,0.4193575075082034 ,-0.45741308524866964 ,-0.4557695154253076 ,0.8332326672892019 ,-0.7682617100558429 ,0.23565121071793582 ,0.6139417986516986 ,-0.3389820724367022 ,0.5704025167186856 ,-0.8594912298055646 ,0.26500378344595166 ,0.4561738414185026 ,-1.1285833089501185 ,-1.22656976112926 ,-1.1025563219264092 ,-0.643589589139809 ,0.42563640500423716 ,-0.5769571905060789 ,0.3865772927205264 ,0.3065402023812472 ,-0.18360617603963894 ,0.39691001497482953 ,0.8693741771071568 ,-0.36700648530139346 ,0.7141036285182363 ,0.9807875164004397 ,-0.4099437100234368 ,0.0854311023931752 ,-0.7475688653604557 ,-0.22104019692486665 ,0.6832939059825418 ,-0.34506491410026324 ,0.9907959846883788 ,-0.9559929900601251 ,-0.0011599400430675213 ,-0.2324213113562539 ,-0.10086616556626041 ,0.1608495486743337 ,0.65875124519079 ,-1.1119878138077939 ,-0.26042795446319245 ,0.4206505290731355 ,-1.3289918449201061 ,-0.745230393638372 ,0.553049097803242 ,-0.12578785033817222 ,0.38316959464651756 ,1.262665656849813 ,0.41979511738244374 ,0.12505552954519086 ,-0.0620680741399112 ,-0.12464543835780356 ,-0.7104884358976957 ,-0.10050275845393439 ,0.8120598618689229 ,1.1572336294485117 ,0.33865224693433255 ,0.5130055361661275 ,0.7733150046088257 ,-0.5977269454708761 ,-0.10116463780475106 ,-0.489687599749457 ,0.40683118161124926 ,-0.9102667236585372 ,0.19255545762195034 ,0.5809640150857269 ,0.11906908117397086 ,0.6035684113559399 ,-0.31571234891818684 ,-0.5069436371282331 ,-1.1041824738672368 ,-0.290135521701772 ,0.37823651877643066 ,1.3060829705976864 ,1.4278311180743466 ,0.6270611768430826 ,-0.2715144560002908 ,0.9738951241204836 ,0.6542292220644912 ,-0.8050501616910121 ,0.9678798993904503 ,-0.5629016107292204 ,0.8330987899516235 ,1.017866185581733 ,0.32202094843718787 ,0.7322636048459196 ,-0.7283996180594147 ,-0.10791022218489246 ,-0.3693511747078554 ,-0.31839126414305047 ,0.13099525140432194 ,0.9049911781492556 ,0.11189314584041131 ,-0.15096995710880234 ,0.10247690681626921 ,0.18396167991036808 ,-0.4688953720734225 ,-0.3262161724124652 ,0.06667192611024696 ,-1.1246881288198478 ,0.26261952921533077 ,0.23849461299517177 ,1.004082468427673 ,0.2587139494422614 ,-0.39377226846672364 ,0.12269674663744908 ,-0.18926490593116083 ,0.45754515598330875 ,-0.1840923407196107 ,0.3973585760778742 ,-0.11002507348122266 ,0.2334113965968738 ,0.42315344130929883 ,1.0062022934853667 ,-0.8698469789570099 ,-0.15235884910329464 ,0.03004199099955779 ,0.12286834813421292 ,0.7740461162493381 ,0.7647740456562448 ,0.7519512427792855 ,-0.02126629142829001 ,-0.7255151378238994 ,0.20582085577633746 ,-1.0187850759442825 ,0.4596777659682415 ,-0.04330682997986303 ,0.27050644109057514 ,-0.6378872763018869 ,0.6809067089205859 ,0.8782950318218334 ,-0.08214958629704637 ,-0.23948802005453462 ,0.5979510990615745 ,0.5551950158310781 ,-0.7689415693980782 ,-0.726429175144422 ,0.03281018240244254 ,-1.0072168579053435 ,-0.9290682794715848 ,-0.8050895958305582 ,-0.1527747863396029 ,-0.14867242637081257 ,0.6429777005352745 ,0.932925773250159 ,0.08712836494310296 ,0.3993184117395827 ,0.6960707012048071 ,0.9813018309709244 ,-0.6607202264619491 ,-0.7069485839541535 ,0.501336123826639 ,0.37715812663422355 ,0.4846052869061545 ,-0.8836953388552724 ,-0.7884322554361093 ,-0.24044984095035138 ,-0.39908318830912565 ,0.7341042284381547 ,0.8513969970412766 ,-0.3219762518692314 ,-0.5315967747581778 ,-1.3104558921395058 ,-0.30368988889909654 ,0.3129819159246489 ,-0.808980874553483 ,-0.386140358228961 ,0.609975418455113 ,-0.4821214982723596 ,-0.23153530656452317 ,-0.6547366140466617 ,0.49545832902564074 ,0.22320837550985415 ,0.7238192019638804 ,0.3480143486147113 ,-0.7793324909448168 ,-0.1514259971352212 ,0.6202675612382966 ,0.446988385293331 ,0.45700911004554035 ,0.10542865936652171 ,0.7915829686690578 ,0.5520122938167704 ,0.7372557516136342 ,-0.2555822288525353 ,0.5547000514472331 ,-0.013043348774002862 ,0.6001417982029529 ,-0.6753276834165961 ,-1.1946670522972316 ,-1.031195727143188 ,-0.3571924621622288 ,0.3050845390483163 ,0.14963869248132625 ,0.5074521148323852 ,0.7354197398250627 ,-0.8862399367155657 ,0.17424243411156054 ,-0.1301744077701848 ,0.3450688877539006 ,0.5902629445520919 ,0.10667168073419674 ,-0.10396759358095854 ,-0.7357570409418674 ,-0.05381208931373728 ,0.7491422861886121 ,-0.9181215076376882 ,-0.37082332900949017 ,0.5159357052204617 ,-0.8062289670434237 ,-0.10653129312744752 ,1.059491173759713 ,-0.08343313378502222 ,-0.595904950500128 ,-0.4817008101628626 ,-0.6124556161607407 ,0.6291400260961403 ,0.5082600436060969 ,-0.2738522104707806 ,0.0010720822104594184 ,0.1926678750764009 ,-0.15544613015082567 ,-0.12355250663058816 ,0.30850525860944356 ,0.6401349583567209 ,0.5155534026135336 ,0.09121954079941465 ,0.8018803200274051 ,0.9658991090673794 ,-0.8838297451330083 ,0.9745540870921772 ,0.2524936995656229 ,0.40366011440878136 ,-0.5219700560360184 ,0.4397356963754659 ,-0.08996322708947317 ,0.7150316949180302 ,0.873059285587666 ,-0.391769079700486 ,0.7917760765378803 ,-0.4975587595284319 ,-0.11041388787292049 ,-0.3460270633958438 ,-0.6751378144594179 ,-0.3797041072925561 ,-0.9399735727063784 ,-1.367875630771554 ,-0.8741054561304069 ,-1.1973569852703274 ,0.2475912653052596 ,-0.011720461813503459 ,-0.006983730811386077 ,-0.027777555232979218 ,-0.18347034475881355 ,0.9660491059676706 ,0.0318129734381305 ,0.7963931452339507 ,0.41157894984872917 ,-0.953276622588473 ,0.5375378305682291 ,-0.6498793374976967 ,1.0924934801598825 ,0.896489712564794 ,0.27559236724149305 ,0.8133162197574874 ,1.0340777095410354 ,-0.005266476031576689 ,0.6588149697861654 ,-0.7171813401754048 ,-0.8051880618014873 ,-0.32257352526394734 ,0.2973995227299221 ,-0.8438735540729969 ,0.002833097197084961 ,-0.6188052531681982 ,-0.7468905452445413 ,-0.1351279683172748 ,-0.2853864953129367 ,0.2839999341708756 ,-0.9717694400592437 ,0.4836453722303318 ,0.7713267129542647 ,0.7307568900423 ,0.4915655080076776 ,-0.8467878044325277 ,0.4165870121243562 ,-0.56574736764915 ,-0.19387791413151995 ,-0.056366665377922516 ,0.7427230640695754 ,0.06692187979020382 ,-0.6122389577959999 ,-0.5779764009683006 ,0.7216227287796411 ,-0.08982047794163503 ,-0.11258434424334991 ,-0.7816748030303202 ,0.8094091646117757 ,-0.5960055885511771 ,-0.8287650692731495 ,0.48358379182486655 ,-0.1990072258638063 ,-0.4643647684298725 ,-0.052418125881457195 ,-1.1496494154211676 ,-0.5797884918721042 ,-0.9112528339740327 ,-0.6407667654995731 ,-0.15594205326063665 ,-0.9489976822821381 ,0.08400342482209328 ,-0.9320805409886084 ,-0.5735296042201756 ,0.6323655182112161 ,-0.8217247602888335 ,-0.989075208616101 ,-0.9026258194943869 ,-0.4998360733269776 ,0.29412307414259653 ,-0.7311258636170489 ,0.9870707327040478 ,0.8012763634069614 ,-0.7247512444134768 ,0.9023413425331671 ,0.5432596432466287 ,0.27650784889775554 ,-0.09031750569118815 ,0.10887614347965092 ,-0.7162463762558725 ,-1.2554486785955934 ,0.347528710437913 ,-0.3201991285331025 ,-0.4418921282900312 ,0.5326922129756153 ,0.5875035485257708 ,-0.6055173956984196 ,-0.6678866723348533 ,0.6897334870920121 ,-0.6820133195858308 ,0.5114330699623462 ,0.13489094497329315 ,-0.4322349264904449 ,0.7945778800120811 ,-0.3874895096128821 ,0.22239446195570248 ,0.6100993315285815 ,0.7281829407868587 ,0.9020212793539851 ,0.32038976748819564 ,0.20151155025018583 ,0.34650989816841066 ,0.5009541811413583 ,0.5177436409311079 ,-0.7080463409674412 ,0.05575250577319095 ,0.6423121971609895 ,0.417749042401522 ,-0.3497331621805924 ,0.15109891886008386 ,-0.32137818219957426 ,-1.1615427337036828 ,0.2993461246333926 ,-0.63157264642179 ,-0.5822076145779614 ,0.44186730239003585 ,0.28970570351894476 ,-0.9474448761843757 ,0.40642163680910237 ,-0.6081146680318635 ,-0.30253855961453047 ,0.3353513051810033 ,0.5022877134567915 ,0.4766030659431505 ,-0.5175271019147653 ,0.04145889113132409 ,-0.4753925929200239 ,-0.4810095209063112 ,-0.06542744511404176 ,-0.25598679260173435 ,-0.6647939951591314 ,0.09825919203068198 ,0.37516113410169216 ,0.12241837693187495 ,-0.2670817345665178 ,-0.6140510218585155 ,0.3826876906147629 ,-0.23150886452638844 ,0.072368237422456 ,0.5999557092528077 ,0.06239547955890549 ,0.054133090614763485 ,-0.49774088779970194 ,0.3968079424304395 ,-0.723737073358165 ,0.5578589079736102 ,-0.529559698693813 ,0.09101688732202246 ,-0.7839016749825833 ,-0.6997149135081697 ,-0.5962858713151821 ,0.40286888785854325 ,0.33778311671012795 ,-0.16074437045753126 ,-0.24581044413765687 ,-0.9758733820489577 ,0.1946770481958168 ,-0.5136950896163562 ,-0.4967544413591746 ,0.06776675158676615 ,0.22014992181899698 ,-0.5744807900410117 ,-0.9208739170401566 ,-0.7172639923051688 ,-0.5304644122164546 ,0.6004467680254211 ,-0.16143538714117744 ,0.5820830815485014 ,0.3929953570978524 ,0.5461807092272972 ,-0.8509570716076854 ,-0.6966875294639991 ,-0.9763036945433352 ,0.33065061724605627 ,0.4331773670962049 ,-0.5600295141756773 ,0.13498606858848222 ,0.5155876181195213 ,-0.676140977992548 ,-0.7571861742121152 ,0.6040507235300374 ,-0.6500562638560209 ,0.7615229568625406 ,0.3708463779989093 ,-0.2126354421694357 ,-0.7453249194295507 ,-0.19784406104838384 ,-0.6519278233479875 ,0.376842448127509 ,-0.9409547723690723 ,-0.6592180856228389 ,-0.9605588894172572 ,0.5550672859435953 ,-0.8987621848382912 ,0.2849728314800478 ,-0.061453584977262526 ,0.10497451042754004 ,0.36308603296018915 ,0.13365302612953525 ,0.17444491010791655 ,0.8252147031194279 ,0.5966704695885237 ,0.9918421390652765 ,0.6230581516461897 ,-0.30549343708665955 ,-0.44886681084821395 ,-0.8670541902574996 ,0.26366181891663987 ,-0.19769748470090817 ,-0.5075958913289242 ,0.46742856330075616 ,0.3085900579043875 ,0.4662893839849097 ,0.015759596929973016 ,-0.13470302470378262 ,0.209904095270695 ,0.31329733950726024 ,0.4663288078310433 ,0.2774220773020235 ,-0.1695665020133819 ,-0.4272299568383998 ,0.421899225756021 ,-0.19923137852299475 ,0.7621285616072352 ,0.8831462022891526 ,-0.5706050321209363 ,-0.2129799267483693 ,0.8185438083678891 ,0.04382838268035576 ,0.0173984199136199 ,0.7690940068596899 ,-0.5028012380521931 ,0.5518899175716572 ,0.02002930005986589 ,0.9475699740355276 ,0.685973662994318 ,-0.5113443934456383 ,-1.0203876727633419 ,0.36900691923053847 ,0.5277330927488427 ,0.5059361494291539 ,-0.5581321823133168 ,-0.24644599736245418 ,-0.8699846203597107 ,-0.6251688846114926 ,0.1560419334640364 ,0.4319760916920519 ,-0.8044219271294285 ,0.5244164575132081 ,0.20443435294251985 ,-0.7889357882056606 ,-0.24239429504393745 ,-0.48673034223325173 ,-0.3425574421630773 ,-0.5737373261319328 ,0.8675785098920049 ,-0.7268877496376915 ,-0.654771985084053 ,-0.11346332456900465 ,-0.8665410969667675 ,-0.8989963525702922 ,0.27673191351495635 ,-0.33119566245659815 ,-0.3001640651126673 ,-0.6436746071052903 ,0.18180541634509495 ,0.6399822702457275 ,0.04363033606572455 ,-0.5798256660392858 ,0.5481675646568992 ,-0.14703902425848223 ,-0.06941002878500416 ,0.6080817955741087 ,0.20845170121191045 ,0.4737289861309496 ,0.03031535913167867 ,0.8650129706471578 ,-0.8311285749754853 ,-0.057094953415035586 ,-0.38380349479707604 ,0.7582643977651204 ,-0.5653182375265742 ,-0.29027109037178267 ,0.6812041539571466 ,-0.3740272426150424 ,-0.5791699464913196 ,0.7147931849375007 ,-0.876320852729545 ,0.7445233411584726 ,0.9451144855989624 ,0.44803937744126326 ,-0.7498826178947734 ,-0.8105630562356323 ,0.07242613215346753 ,0.767654356237572 ,0.9358332427269658 ,-0.9088808787409434 ,-0.4387488984585965 ,-0.9410929953755351 ,-0.3346535720476899 ,-0.5291362679550456 ,0.9143607095865374 ,-0.806585753766932 ,-0.3519764482718495 ,0.15748684980171232 ,-0.43944233778221625 ,0.31413969883840603 ,-0.5165143698284248 ,0.512605422454886 ,-0.9387008112746382 ,-0.8161552155304539 ,0.02675430001108481 ,0.6434423369835827 ,-0.6748977572341903},
        {0.9493121244296887 ,-0.1413812562546921 ,0.12093555060204242 ,0.17837043463572444 ,0.8643509810574523 ,-0.5635409871241799 ,0.28340127340179455 ,-0.4010649243135831 ,-0.7492660907597339 ,0.11976623429359834 ,-0.3387560650674446 ,0.5840753934971361 ,-0.6845361153519369 ,-0.7632486925318798 ,-0.8784919330331993 ,-0.8701945536119249 ,-0.11602314829747074 ,-0.17985161265170668 ,-0.8916296366652461 ,0.3819557098005395 ,0.5527096822640172 ,-0.5831485746862914 ,0.6994715535134752 ,-0.29251456993168 ,0.5361292272506095 ,0.807689688713755 ,0.41394215498087683 ,-0.1903530790950092 ,-0.7391534859811155 ,0.953726481932174 ,0.8246651846344284 ,0.8359689245145501 ,-0.43031990420530725 ,0.5019205421740582 ,-0.5301817564236521 ,0.30234566697788867 ,-0.6291318780119343 ,-0.1754885909721753 ,0.5874074654420522 ,-0.247890572173458 ,-0.8582528188687977 ,0.831702569895599 ,0.2743068699814266 ,-0.7800535471480361 ,0.6368377314653564 ,-0.43845170935591843 ,-0.03410527196104387 ,-0.541973338455137 ,0.2255420866591295 ,-0.17316234126679586 ,0.5525432217074794 ,0.517189283187635 ,-0.9031584841655098 ,-0.9808747689961557 ,0.5469337661616405 ,0.6720707931584726 ,0.6595954804040913 ,0.41504820592485614 ,-0.7678746829302011 ,0.7224285430384663 ,-0.01874092447331409 ,0.01012802471215696 ,0.9234046500833262 ,0.9753626872781858 ,-0.7351586931372287 ,0.6225486160765179 ,0.9472154327251425 ,-0.29197475651386945 ,-0.3505325317280532 ,-0.5567973502575996 ,0.8116600716047182 ,-0.46491206356328185 ,0.5126178103583375 ,-0.5045261543744534 ,0.7999508736618889 ,0.6482431676338969 ,0.9863987735541916 ,0.19197405572159412 ,-0.741980187102671 ,0.22986681955230334 ,0.33028178700715644 ,0.7329944567229346 ,-0.986696981860429 ,-0.42240817333286906 ,0.09067265847897343 ,-0.8498930464093246 ,0.29429519263876436 ,0.7959787369941506 ,-0.6235291521223838 ,-0.20160545710010128 ,0.5777277656748419 ,0.760396188153536 ,0.5615495857392314 ,0.1378302073010272 ,-0.49586149490183234 ,-0.4116404895703152 ,-0.006414559381855723 ,0.5498039023027881 ,0.0715382227902105 ,-0.3283587145253829 ,0.42054471432417523 ,1.1725158624578185 ,-0.01655344832118764 ,-0.13735664911905318 ,-0.8134231381842054 ,-0.13740544732067259 ,0.5067382865907207 ,0.0772445978585744 ,-0.07198046935205445 ,0.8695967563959579 ,-0.27762882867714334 ,0.7142275848147541 ,0.2600904789502929 ,-0.36582126841472307 ,-0.1036217837679877 ,0.9045582199178577 ,-0.29187164972764956 ,0.13894547643197536 ,-0.8846086554058858 ,-0.28978152737720797 ,0.8631390531370177 ,-0.4951917835835834 ,0.9352626177692857 ,-0.20808569793617862 ,-0.060757197575355935 ,-0.203953723556856 ,1.0299330704836156 ,-0.5027097705542044 ,-0.45331737435593855 ,-0.4897788365369714 ,0.1830131831934646 ,-0.3097225493480927 ,0.6400279193420556 ,0.04458701644931559 ,-0.46937671288534055 ,-0.9522177231077826 ,-0.22443782664414844 ,-0.2814721260035106 ,-0.262019100769379 ,-0.8525006062375794 ,0.7714763887281884 ,0.16762256612109394 ,0.4461968902013677 ,-0.6059103094029167 ,-0.9496476667674184 ,-0.24972858783367805 ,-0.8647828262138909 ,0.36369156975838224 ,0.7326192616220056 ,0.5364267040702012 ,0.4140531373687691 ,0.5545410518555729 ,0.9461465918729668 ,-0.29017277912651557 ,-0.992727570106997 ,0.5105199944080375 ,0.23031363157751664 ,-1.1185966360261075 ,-1.1745976573726375 ,-0.5120746774464116 ,-1.2383542690868137 ,0.0499742084420752 ,-0.02849325972901257 ,-0.5926740499231039 ,0.21769982497327492 ,-0.1934114853401907 ,0.5185423851208862 ,0.6434230667831885 ,0.2515957580784751 ,0.5253686076493211 ,-0.38083876216057283 ,0.37462221634928616 ,-0.415754171880819 ,-0.2599599966029369 ,0.013409487535197157 ,0.44417403990277793 ,1.0738585879491143 ,-0.10088700581953772 ,-0.26903521696931365 ,0.21168814873821618 ,-0.35571533929371 ,0.04843020182217248 ,0.24949623052858688 ,0.04876464881777057 ,-0.5402807192803561 ,1.2347338504534158 ,-0.5455285878686851 ,-0.31483447310143436 ,-0.8919793891606047 ,-1.2219769202717148 ,-0.06348663947070594 ,-0.6927987596362796 ,-0.8654589929235796 ,-0.1317140506877715 ,0.9612978004750403 ,-0.8011722348349246 ,0.9639207332867955 ,-0.6059077816194497 ,0.6473630042631644 ,-0.7854243659674984 ,-0.7205254866283419 ,-0.11597831616467635 ,0.586724011257731 ,-0.27656159314798595 ,-0.10151633178366806 ,0.9825712255595939 ,0.3320830591517976 ,1.0511815523038395 ,-0.5907167066284017 ,0.6506917326346916 ,0.03417985076832636 ,-0.6772883183198167 ,1.5615601942518595 ,0.3786391625440089 ,-0.46167947437684204 ,-0.2340064003149713 ,-0.9392460182069625 ,-0.4710265590782857 ,-0.6609923710148787 ,0.24238629528966893 ,-0.2489711811069194 ,-0.9306301286163771 ,0.5118881292141602 ,-0.09353151689436756 ,0.7302874210780662 ,-0.13103814980167025 ,-0.2714051838838514 ,-0.6986915999249673 ,-0.625918871865921 ,0.8113138029691273 ,-0.8569107550035299 ,-0.5948643382107912 ,-0.34183862756913325 ,-0.348422520571076 ,0.07997315522385896 ,1.05448957593379 ,0.411048319033592 ,-0.5113766521582368 ,0.7986434922928389 ,0.5345206110295266 ,-0.5736334108678346 ,-0.05047635803693258 ,-0.331460681297401 ,0.2690213647140221 ,-0.029059161384087828 ,0.3081981851237305 ,-1.1263089309040102 ,-0.842346027916957 ,-1.0277589019746851 ,-0.8814746853200526 ,0.43138789856859117 ,0.9203652841473177 ,-0.20952168090627454 ,0.6685045630925625 ,0.7717805423728099 ,-0.23977658402786703 ,0.2314571747307931 ,0.34728718279975335 ,0.7425867405344896 ,0.06123866470552188 ,-0.7560357292479694 ,-0.439100661433955 ,-0.3409071922091357 ,-0.09726420315382207 ,0.26077412583593146 ,0.17542236083231594 ,1.293706518301568 ,0.6044890082175123 ,-0.6875880261017919 ,-0.12080497843893727 ,0.6279373093692975 ,-0.40027939167807763 ,-1.214401705966481 ,-0.6209462886199615 ,-1.163219185485449 ,-1.2738428492140985 ,0.40561919119818235 ,0.677458863304589 ,-0.45552957195437116 ,0.9792620957548147 ,0.3912896720970681 ,0.7752842890872764 ,0.6583357539465315 ,0.05189032598837703 ,0.8495909524865174 ,1.1087125099431452 ,0.20700658448378695 ,0.2775257447671102 ,-0.2837301227972904 ,-0.7610425968128219 ,-0.376549429093369 ,-0.1447904958500885 ,-0.11116780830185632 ,0.6316818662168653 ,-0.8004415798638146 ,-0.9439677159245028 ,-0.3029694045107376 ,-0.8865021025640931 ,-0.3381080211700339 ,-0.7327359925661844 ,-0.21538655387054928 ,0.33372195840422825 ,-0.523721622165156 ,0.5307777406658708 ,-0.8098429684053144 ,-0.24472088004099588 ,-0.9178704479723396 ,-0.19912188372281658 ,-0.4155302140912807 ,-0.16494893482233425 ,-0.2621234647378457 ,0.3235724069646305 ,-0.07759721252063743 ,-0.08617346490071986 ,-0.011103371580620674 ,0.5254761286226608 ,0.3222225831644447 ,0.6476685611276967 ,-0.27571329291189217 ,-0.5538750693826495 ,-0.6921555120781958 ,-1.386231781724073 ,-1.0739842623055458 ,-0.6833254266738737 ,0.381981679607277 ,-0.039393950560997655 ,-0.5482489389834408 ,0.903160843544308 ,0.929774473921021 ,-0.35078950108561613 ,-0.7466956419881988 ,-0.17580503365119163 ,0.5270076503501981 ,-1.103495986454804 ,0.4922861049937894 ,0.274517348967462 ,-0.22648881553044592 ,-0.5573852786262055 ,0.35952128207276335 ,0.40953846423582624 ,0.6167314375829729 ,0.06039236984449785 ,-1.1504541117048157 ,-0.3257126630216624 ,-0.37276430195592 ,-0.7448266479775058 ,0.4723583495111354 ,-0.30477101743660967 ,-0.7775358757698523 ,-1.881662521570519 ,-1.474444514038721 ,0.04342495086381576 ,0.6294341077801655 ,0.5874725450497472 ,1.0600854412809984 ,-0.15093448035816553 ,0.7897955811909158 ,-0.30257105554182817 ,-0.4115202109244539 ,-0.49777455892200406 ,-0.8350096523366485 ,0.9040027358315251 ,0.41638419286921724 ,-0.6567353554124543 ,-0.8142757655156737 ,-0.559648107852029 ,-0.7510781750399177 ,-0.8671509569836612 ,0.386397759112235 ,0.06368316788116592 ,0.21723606461335898 ,0.3418378310792334 ,-0.8014871037502365 ,-0.32080644474169023 ,-1.27071242674239 ,-0.9774122275642843 ,-0.3870407364151989 ,-0.869620165715064 ,-0.8782757812201963 ,0.6725492546124529 ,0.7994232874437653 ,-0.4947152858241366 ,0.5680644209680056 ,0.3805561906122274 ,0.1809441712049086 ,-0.5889328372162475 ,-0.28035880475125463 ,-0.22135491336353022 ,-0.1195097669894443 ,-0.1885434006836412 ,-0.020423870113645486 ,-0.49028077736467185 ,0.041854087612333425 ,-0.4586698426043016 ,-0.41489295263374726 ,-0.6576059715734209 ,-0.7392883002359185 ,0.2442373871052935 ,-0.35186509663731297 ,-0.6755233227620406 ,-1.005528200545932 ,-1.2913092384795317 ,-0.19780017749751674 ,-0.8413376973640275 ,-0.1914372613841183 ,-0.9244703801558325 ,0.980244417512446 ,1.0585130991004854 ,0.5451734986508814 ,1.2125971607429877 ,0.7946970510004846 ,0.3219825418549598 ,-0.5014077914275477 ,0.17153061825987695 ,0.0907000630044244 ,-0.43065062037482704 ,0.574677436739449 ,-0.27366672689496524 ,-0.10070512872747239 ,0.7749895538554715 ,-0.4971669658555048 ,-0.8626402768461057 ,0.24338072593115817 ,0.2799862973931785 ,0.5611895959731728 ,-0.551996024044565 ,-1.5207619128181187 ,0.5223345634474637 ,-0.05555036924338796 ,0.2095948215102905 ,-0.3574209857330256 ,-0.9264864563652887 ,0.01560811214049902 ,0.19597228856188575 ,-0.3432456300120202 ,-0.2981103715576293 ,-0.3065646886069605 ,1.2379822306648327 ,1.2818487700668473 ,-0.08403150714970613 ,0.23590186638351865 ,0.15910399045216536 ,-0.008815525813864817 ,0.11101256305424534 ,0.07746963737059384 ,0.48436489484300926 ,0.2126244225718577 ,0.4284547519353296 ,0.46989848376926413 ,-0.6726075248944305 ,0.39119644721937974 ,-0.9381677900310504 ,0.8069094486031712 ,-0.9329748400164989 ,0.0369423297806314 ,-0.21286411964534294 ,0.07290381454386059 ,0.07736616159643271 ,0.7037272971662387 ,-0.8154151165166702 ,-0.8984034286186671 ,0.40690498631989364 ,0.10455081853409193 ,0.7366616702835133 ,0.3178162702310445 ,1.1507080750916145 ,0.0900803461434969 ,-0.47976041197367647 ,0.2784527128919544 ,0.6725727507647232 ,0.28078697697346194 ,-0.26022736797171986 ,-0.034797613846940675 ,-0.2591808622558414 ,0.057651381755303446 ,0.5923071696389484 ,0.5849657842785365 ,-0.690986991295851 ,-0.53504355461617 ,0.8899231885952633 ,-0.9332491455378443 ,-0.5880084290942572 ,0.6362466152299737 ,0.6064118832616388 ,-0.29959430593497555 ,-0.475385726614647 ,-0.9120835213248204 ,0.24827728786412906 ,0.6912905736344386 ,0.09293384985430286 ,0.021881151174479658 ,0.5295976362664195 ,-0.2535702975821669 ,-0.477100200434843 ,-0.530950544537564 ,0.07459836673785403 ,-0.3003264335113034 ,0.4594071183287371 ,-0.3549608748360059 ,0.6929540582900526 ,0.5092058605515757 ,0.7819157097796092 ,-0.47409265806414863 ,0.3324731921073499 ,-0.7859198096412547 ,0.566412673992324 ,-0.27229731553340714 ,0.8727430251273307 ,0.3199475357543193 ,-0.08400951042340764 ,0.4398536328338021 ,0.7907703190258654 ,-0.3760008542834973 ,0.3472550602200995 ,0.8780358383267047 ,0.6296150350009982 ,-0.149154057241112 ,0.8803010345902015 ,0.27942965636710226 ,0.6618545075005564 ,0.7628202754574013 ,0.6915023788352735 ,0.7234319302425538 ,0.7120778196915728 ,-0.8079199613055148 ,-0.2697947092503765 ,-0.054435135665023955 ,0.5631000026176309 ,0.9362186242917131 ,0.26421683710513894 ,0.20662499430317022 ,-0.007227366828364588 ,0.1878355299928512 ,-0.9520454587173657 ,-0.542432265937306 ,-0.5658332279149646 ,-1.0172460888335562 ,0.6456437483272431 ,-0.541488193839115 ,-0.6784588471466875 ,-0.5797609142594508 ,-0.1870500262364279 ,-0.2567179982752862 ,0.05458400696138026 ,0.5604825308598212 ,0.670361282908037 ,-0.5191979907600262 ,0.08120293418370958 ,-0.831184375455793 ,0.771461002127147 ,-0.3879167842043722 ,-1.0383161367449398 ,-0.42044767654889265 ,0.08822277443526153 ,-0.044467327049094556 ,-0.10628407876428758 ,-0.27287929773268627 ,-0.5147753791382697 ,-0.7464251897325447 ,-0.6772929857111182 ,0.09127179167377508 ,-0.19586611945351576 ,0.9808141049926279 ,0.9328757442870858 ,1.031573296817165 ,-0.9553097876987737 ,-0.5278354184002612 ,0.556766243565258 ,0.03805878299626179 ,-1.2728792514279892 ,0.14312684968190809 ,-0.40883486154829995 ,-0.09686115518477519 ,0.5814478357745407 ,0.4990838104637344 ,-0.3549744338515722 ,-0.7791094263702284 ,0.14976182041397615 ,-0.8413784872030577 ,-0.42333262958155116 ,-1.1697618196574187 ,0.2986209493647554 ,-0.11872888818282314 ,0.6277854686567982 ,0.16607343939563293 ,-0.7067352481408338 ,0.977118552985545 ,-0.6264594660768716 ,0.07094410973215462 ,-0.4720927914197413 ,-0.7201263040135472 ,0.14784409621883854 ,0.8604401011655683 ,0.5901228745652248 ,0.26141603246319994 ,-1.156026605433579 ,0.2587355246884309 ,-0.49106612419368695 ,-0.23570537969662428 ,-0.7374475766959087 ,-0.69108113044341 ,0.3217863474143262 ,-0.2540312550168951 ,0.3155173201995994 ,-0.06798170735192072 ,-1.3271402221292479 ,-0.558032716546233 ,-0.32824409836537277 ,0.4190613888159412 ,0.7350006800032313 ,0.9068006338162168 ,-0.5813902853029793 ,0.1516352189085504 ,-0.944119846902301 ,-0.5295419954486207 ,0.5235045200735527 ,0.38648569111407033 ,-0.6932064777812247 ,-0.9621452458189913 ,-0.5735569604316278 ,0.7201755884052642 ,0.12252205895373271 ,0.5688857885754786 ,0.4376650139678551 ,-0.06023144787712331 ,0.012216587990966643 ,-0.7956094340448703 ,-1.2370615541988426 ,-0.15467846498432136 ,-1.630818429760738 ,-0.22790404596201744 ,-0.18142841435412974 ,0.21819066237546392 ,-0.7110141788962295 ,-1.5399867094937139 ,-1.1782928624672175 ,0.25316242353355517 ,-1.0661005128223182 ,-0.8274837459031062 ,0.7627503740554951 ,0.6184125402318034 ,0.49344128145180277 ,-0.8840962813400434 ,-0.6581551862460303 ,-0.32882176359069737 ,-0.797796774588003 ,-0.7965494073326954 ,0.2659221301807463 ,-0.9674362949521627 ,-0.7450019474269307 ,-0.25863915866302817 ,0.33209964813766557 ,0.8230578572571399 ,0.6454572404644372 ,0.07617233269674399 ,-0.5355712855024637 ,-0.3959162792720223 ,-0.5553519331574924 ,-1.484137692835494 ,-1.0130044187111504 ,0.08791562928777062 ,-1.1912107959454368 ,-0.4394966712998387 ,0.2181547497141147 ,-1.2974813174778559 ,0.1384553380086178 ,0.8941473837355277 ,-0.6981451211861037 ,0.9810219446717159 ,-0.6112794131722218 ,0.3637768139272339 ,-0.75122796796663 ,-0.24010258348721747 ,0.7680242750363975 ,-0.570013768159613 ,0.24041892623174727 ,-0.9394740720995935 ,0.40156448482259294 ,-0.13675462538014174 ,0.07481128174300541 ,0.4423197136249116 ,-0.4551254188039086 ,0.6364538649706799 ,-0.13235308636348522 ,-1.1612354151354334 ,0.5674648497665961 ,-0.18211713498505777 ,0.6745701183343702 ,0.6543198511301374 ,-0.817504955639576 ,-0.4464404527958448 ,-0.2662644783431135 ,0.4986103361350872 ,-0.1502260069259101 ,0.7863119871999621 ,-0.42665041635753487 ,-0.6985350524186269 ,0.2936218406955391 ,0.484966393581889 ,0.2052726066791557 ,-0.8806076079722662 ,0.34197951573449936 ,0.49321414303183014 ,-0.4977935279709756 ,-0.09743805999134357 ,0.49644055788552366 ,1.0317885990810247 ,0.5224271122275165 ,-0.2353449566998716 ,-0.18096846092485938 ,0.5045255234336059 ,1.491538667123076 ,1.6172062731668508 ,1.5153397204804357 ,0.26524930659994206 ,0.970810456048655 ,0.010301815797360751 ,0.09383778068684617 ,-0.8160684392829018 ,-0.20618609251389525 ,0.41709590979155065 ,-0.6841952741934649 ,-0.780172363829927 ,-0.6954723060127477 ,0.5646325197371427 ,0.7448602203807856 ,-0.661701978657443 ,0.19804994570098589 ,-0.11169085671704848 ,0.8505794406856544 ,0.6722590309711847 ,0.18455721456316843 ,-0.8299580139878938 ,0.9502725996936011 ,0.7365562321085766 ,0.21479151571256058 ,-0.3611631651305244 ,0.8744492180766632 ,0.6177729104889012 ,0.3335933623534363 ,0.37261483738032736 ,0.31470186907855596 ,1.0041333619597028 ,0.9370667801270708 ,1.012618669099099 ,0.2982596743867498 ,0.04554627904021475 ,-0.5314188479964773 ,-0.7700125395917453 ,-0.22568922472906677 ,0.20835949519157165 ,0.8671531435297458 ,0.6872968977782952 ,-0.6776153520744327 ,-0.9507371584740085 ,0.7385813881096037 ,-0.5092045884814596 ,0.9981820448659835 ,-0.07960316022833536 ,0.3239477304041758 ,-0.37095569663959727 ,0.08292799130171762 ,-0.37771993621834593 ,0.2393228416029947 ,-0.40535560687738287 ,0.421361056984895 ,0.917490282531476 ,0.9560444092600017 ,0.019586050182573467 ,0.07935601881835495 ,0.5895079843827946 ,0.21819056663528752 ,-0.22823962459366326 ,0.2085226065393625 ,-0.31812470299313883 ,-0.5193492658521316 ,0.6239986223541174 ,0.26320793241444373 ,-0.04783557254634448 ,0.3958565655314286 ,-0.8345505196444931 ,0.733371522499356 ,0.4598487292259823 ,-0.09662998406348078},
        {0.30136331301747044 ,0.7980262380462546 ,-0.6455546862010151 ,0.48622161115448503 ,-0.5529028420208004 ,0.9003429330429757 ,-0.8825137089180695 ,0.6701911328800911 ,-0.0848790809657074 ,-0.19164812863785663 ,0.2803265404024118 ,-0.3209130642235345 ,0.29011824842098655 ,0.24126680348439244 ,-0.15693224455328855 ,0.7702555989726767 ,0.9752782512784568 ,0.4913984120954491 ,0.3736163576946294 ,-0.4720675713007263 ,0.3599100223158209 ,0.874617663777955 ,0.41074886194330706 ,0.48209386125841114 ,-0.4091716854058318 ,0.7572154670523223 ,0.594892920323217 ,-0.9842219563489352 ,0.48681537389771345 ,0.789804083553262 ,-0.4710051916736886 ,0.8488818939425498 ,-0.3601488782181464 ,-0.3172184196547676 ,-0.17930166926542362 ,0.09831886484436105 ,-0.06535935734524634 ,0.31711394340583454 ,0.859662542434424 ,-0.6507334560560897 ,-0.13917206152232164 ,-0.6311867364555958 ,0.17875845423472103 ,-0.49085825653358633 ,-0.1688562855637914 ,-0.35614019212091813 ,0.1635659809274502 ,-0.08884497073417412 ,0.25048977200306777 ,-0.16139284060542278 ,-0.9160768073407081 ,0.5306618184324289 ,0.11318899203583599 ,0.9271483752026837 ,-0.3085302897219562 ,0.919447708584596 ,-0.6207543499443384 ,0.6115840950491809 ,0.1787596451981423 ,0.2314049205602794 ,-0.11209924747396899 ,-0.6341059080347937 ,0.6918202535526513 ,0.126744740968233 ,0.39042204673727526 ,0.08799783154514051 ,0.7634429770081724 ,0.19313934070292268 ,-0.49355001444457686 ,0.09063252285317452 ,-0.24766814489429245 ,0.4922209475268474 ,0.7143192907955417 ,-0.5346564030411447 ,-0.5222468564842973 ,-0.036769735282884825 ,-0.6498172401011626 ,0.504415425535346 ,0.7453885667689725 ,0.061403038621586706 ,-0.7907507440612482 ,0.6096860654501847 ,0.7413279591458375 ,0.6506784888375667 ,0.820746255549673 ,0.6413395346506734 ,-0.4685341372278432 ,0.728038376697376 ,0.18608562625763492 ,0.44846701199600963 ,0.49359823659981705 ,0.5400614088314227 ,0.004621316108884915 ,-0.8376253091826775 ,0.33971233986915517 ,1.1299279530261508 ,-0.41628038990793814 ,-0.7298311808701097 ,0.74590803724616 ,0.5867916575528043 ,0.4402911229482221 ,0.5300834157369293 ,0.15975403103700303 ,-0.22722350959668233 ,0.20693895983553628 ,-0.9924997505007492 ,0.07071607192914955 ,0.31668471776175283 ,0.7614642907581893 ,0.3237627060167808 ,-0.5475022697701436 ,-0.4187832447494957 ,0.8103139697889896 ,-0.8219466229237437 ,-0.3047575750825148 ,0.653651177441349 ,-0.22441751204379518 ,0.5405186759631554 ,-0.052968210033193575 ,-0.372886631405576 ,-0.5210699405957868 ,0.9517119901917078 ,0.46936012328355003 ,0.050476891026622187 ,-0.1946677591226141 ,-0.1474201727190854 ,0.3180262960326138 ,0.23747633279950564 ,-0.05912274505399812 ,0.10866306139965472 ,-0.29445721502242 ,0.5939265233950909 ,-0.5452695939454999 ,-0.4786156394567279 ,-0.12663579810766734 ,-0.620270640176423 ,0.7850801786524715 ,-0.9525425701273361 ,0.2921790537461534 ,0.6152823152796124 ,0.15130824396158937 ,-0.21755541530718658 ,0.7351916649906439 ,0.17475550458290862 ,-0.28900462723154663 ,1.0818661227618378 ,0.16270575118347272 ,-0.3836076932189042 ,-0.31649944416963693 ,0.35688506413444876 ,1.2178810118281416 ,-0.7844196389596662 ,-0.37220700345045915 ,0.9235691298097352 ,0.5094725297959273 ,1.046943175190198 ,0.09842766741424865 ,-0.3743738526445167 ,0.7529555395412585 ,0.6976485085594102 ,-0.7012519226395099 ,0.3764120335589051 ,0.20797955563952347 ,0.6579836320145459 ,-0.5650957372591998 ,-0.37727981566674185 ,-0.049362424600651086 ,0.16677546989108616 ,0.9620633358962241 ,-0.646071372105969 ,-0.6402342902271368 ,-0.26941949571306445 ,-0.6561989190574721 ,-0.3594540003746096 ,-0.4165375491860592 ,1.1980332003003242 ,-0.0827004878123875 ,-0.46624433307485497 ,-0.1744843100867666 ,-0.42203827598076243 ,0.40156979001446486 ,-0.07233298980566569 ,0.394610315806477 ,0.9529819535519517 ,1.2353043876652663 ,-0.2626061715833047 ,0.008821249576454299 ,-0.05212063190820995 ,0.1583110556816295 ,0.5266850419489005 ,-0.9753594982197734 ,0.5605228350945343 ,-1.249401674106021 ,0.6099894283104113 ,-0.6893133505845096 ,-0.21512081120289414 ,-0.9057664956841798 ,0.379555866155621 ,-0.07328203129173005 ,0.9425719366469971 ,-0.3783442685674034 ,0.08072173391091408 ,0.5395085361308929 ,-0.18387420978216923 ,0.02133007109810069 ,-0.4410083584516 ,-0.3877834652173619 ,0.19425301079217158 ,1.1871945419611105 ,0.2565937233860808 ,1.530442562978577 ,1.0738081686214767 ,0.2253277392636229 ,-0.14854284054150482 ,-0.4893261953003616 ,-0.5315246785910847 ,-0.26390422024070365 ,-0.6985769851565586 ,-0.9516460518109842 ,-0.9846878252792974 ,0.039034758018323526 ,-0.9077195287358121 ,-1.0288890874296517 ,0.38033160509466707 ,0.38324770705331035 ,0.89468127782632 ,0.7775988774359376 ,0.45579986855201626 ,1.1642951483137152 ,-0.41739650813848594 ,0.7885318896684949 ,-0.6688549471341075 ,0.2211425758203784 ,-1.0885162490429499 ,0.18778012754531095 ,-1.1840893658681677 ,0.276668614029392 ,0.8514360640057272 ,0.48936281294700157 ,0.48159462637909756 ,1.0482012192541212 ,-0.39091243742835197 ,0.42469826021599316 ,0.26491159907307077 ,0.24927879473442202 ,-0.15468553705719304 ,0.6460874279353988 ,0.3904733150191976 ,-0.8710900840659059 ,-0.9084295414167763 ,-0.491616842114112 ,0.6831995496596166 ,0.3132873749181157 ,-0.5454146556356755 ,0.6271370423779851 ,0.05153342714040017 ,0.3733940865718305 ,-0.5865519397952762 ,0.28774188760881475 ,-0.4295712621114005 ,-0.21826158199173473 ,-0.216206140154723 ,-0.8096759556888232 ,-0.5660898084142837 ,0.7318074537059984 ,1.5246990684267085 ,0.5711028785817734 ,0.5955312918107645 ,0.7418869273627975 ,-0.41251336527063426 ,0.11981593860927758 ,0.39717867701476145 ,0.5806771676066053 ,-0.8193696605676716 ,0.37374799816132015 ,-1.1188091357373071 ,-1.226577384855742 ,0.17241887167240846 ,-0.26479678855871186 ,0.5551234638400874 ,-0.7331647048470336 ,-0.6919213938880914 ,0.8331275529069242 ,-0.6741277442995524 ,0.6376702361780341 ,-0.6374175497116269 ,0.4281126214093103 ,-0.8172050990689624 ,-0.6811679726069476 ,0.0012646206235369883 ,-0.32327137587694504 ,-0.8715193391024054 ,1.6235125647975233 ,0.2903927070847759 ,1.6901430530341066 ,0.22612391257284217 ,-0.18848534097681474 ,1.1292326377253301 ,-0.6352405271818243 ,0.03546926085036085 ,0.10309879146434996 ,0.22509041217379383 ,-0.6617214525014791 ,0.3739630383722419 ,-0.5337165683981185 ,0.16066492418994216 ,-0.04664488224742577 ,-0.7718616590349464 ,0.9859531455946017 ,0.07487055428384655 ,-0.1550388348971511 ,0.1822553700720233 ,0.9605974412051165 ,0.5948823051393695 ,-0.5858520491981513 ,0.39922487013936137 ,-1.1895332715361562 ,-1.0780029692407294 ,-1.4631736603876992 ,-1.134914163587904 ,-0.13873276936680026 ,1.0050987649127507 ,1.4893468722997847 ,0.01834043649446184 ,-0.5990160308113998 ,1.060814839968531 ,0.2814190546227532 ,0.798961926029472 ,0.03119688290797841 ,0.9575567973343204 ,-0.43682640710076537 ,-0.3397392830763672 ,-0.27943586420347233 ,-0.13624526864195804 ,-0.4537372541763681 ,0.9463640633807386 ,-0.9125367898879524 ,-0.5664438211606946 ,0.3406145111703374 ,0.3140494105201271 ,0.0038471119897895097 ,0.8211023806943551 ,0.4682181285511563 ,-0.716472758820208 ,0.7278374349375564 ,-1.0302147231075216 ,-0.24245781020803125 ,-0.739057983046972 ,-0.12234675449162756 ,0.25913334851788083 ,-0.5724975361637267 ,0.29838984008530756 ,0.37335450178827045 ,0.7126722844222713 ,-0.4747729468273541 ,-0.18734283598095508 ,0.2154494630314671 ,0.8658250763210307 ,-0.3745858393002355 ,0.6397099487382591 ,0.5425856944922981 ,0.6631710877145337 ,-0.7761102232146824 ,-0.08104276203685999 ,0.1161288648604236 ,-0.7853457807100243 ,-0.4166259145596201 ,-0.13915778767106593 ,0.488732100261492 ,-0.49562417855312063 ,0.20155082184846665 ,0.04329888381905289 ,0.349663949448419 ,-0.6929341760097054 ,-1.1265275722128285 ,-1.2564763749348165 ,-1.1566751383351657 ,0.2541404312237948 ,0.4961742945368381 ,0.5822905867695255 ,0.035762797999386246 ,0.9956733257514714 ,1.038953772279705 ,-0.5479245806237423 ,-0.9179828383637713 ,-1.0939111215545911 ,1.0794894755275057 ,0.09520891529487674 ,0.7820427946141566 ,-0.7489549134993743 ,-0.704727917688072 ,-0.039403890839775 ,0.20183967954102755 ,0.4026912967369852 ,0.1171248062930567 ,-0.007867618295815358 ,-0.026411485430621266 ,0.8417839413326045 ,-1.0682414695466986 ,0.023935292898326303 ,-0.6452322831730933 ,-0.7840148324215646 ,0.06738202857902136 ,-1.3574199023077476 ,-0.5028445262363119 ,1.0747634954089555 ,-0.20431514204557671 ,1.0216580481754185 ,-0.033269830555960785 ,0.2510018720429977 ,0.3615147627270929 ,-0.8265416752105578 ,0.37616720858532626 ,0.009566420050044457 ,-1.004879273522553 ,0.43531943616055224 ,-0.8094317064934693 ,-0.12126532726971749 ,-0.37209598394808757 ,0.7955047759453487 ,0.8458714623501804 ,0.4654868875996885 ,-0.07471354759869986 ,-1.0477688587223692 ,-1.0090159087899655 ,-0.1378694511447689 ,-0.18184243975426734 ,0.8248503717469108 ,-0.6942813654059427 ,-0.2513570303981964 ,-0.6452282748826303 ,-0.8247336826369878 ,-0.9078320690562357 ,0.4128655422585937 ,0.23627357856446302 ,-0.4041322727835546 ,0.26292067550186227 ,0.27898096534862515 ,-0.5570464251948367 ,0.1573043844328841 ,0.09567915441863638 ,-0.16160392991233358 ,0.11700483988279814 ,-0.627767286721239 ,1.063838528094301 ,-0.05534302163800318 ,1.014977907443821 ,0.9294545231315232 ,-0.43537166282609896 ,0.6796511211161806 ,-0.42253037413868966 ,-0.6852955767893658 ,0.9186987053960766 ,-0.3140500344651465 ,0.5221085895108905 ,0.6892744367885338 ,0.6964035716010702 ,-0.7384958256864855 ,-0.5963540764845853 ,-0.9635512221921702 ,-0.028481411079202282 ,-0.850210348268735 ,-0.0939091264300125 ,0.456752324312248 ,0.31225901525787025 ,-0.000651480896224295 ,0.9477174834528681 ,-0.6224744052539211 ,0.7462676000611153 ,0.35547669494502104 ,0.7774914585443602 ,0.5712216437461405 ,0.4310319077123653 ,-0.27826369731359757 ,-0.9110918029727839 ,-0.027215536959190455 ,-0.5780309918102791 ,0.048915972336185956 ,0.9723563757509579 ,0.2672354206310901 ,-0.3050091958114694 ,-0.24758065628367418 ,-0.18038018993438656 ,0.8780152701210838 ,0.12135348777778526 ,0.5412545377899435 ,-0.5106128980900599 ,0.5625255243405027 ,-0.7827539165522954 ,-0.9758919328125515 ,0.2034540627745423 ,0.04937517852670106 ,0.9349230216447828 ,0.1826135729163359 ,0.21235679008107708 ,1.3630694865126467 ,0.7488052986494259 ,-0.12550760172863434 ,0.27256941584908495 ,0.9878027979674028 ,0.08068688338115117 ,-0.22778582858830762 ,-0.08509779379657263 ,0.5185629152464158 ,0.7056255844252444 ,-0.045644438343654684 ,-0.46758106920460707 ,0.504340466168651 ,-0.47003583696279544 ,0.5005232991688054 ,-0.3316884936081548 ,-0.10182958422750187 ,0.2697604462825483 ,0.6381685443291123 ,0.7487975944942128 ,-0.5403280911263959 ,-1.0055706816965004 ,0.04871102927494509 ,-0.335920733761776 ,0.37345622290372016 ,0.9749351982397056 ,1.6947978929582208 ,0.8474999265100214 ,-0.7760977108325331 ,0.44097634391900165 ,0.08330553892997064 ,0.040107231077035004 ,0.769044336632448 ,0.24727065429289033 ,0.00777244024442489 ,0.4110477713972709 ,-0.14414740198518905 ,-0.4840129323340257 ,-0.143661252331534 ,0.26719071364195196 ,0.34421100428685725 ,-0.4895524964427283 ,0.7670506207929253 ,0.22038706157055213 ,0.36877679402570074 ,0.4894656371174945 ,-0.4646770478975598 ,0.7067450340966734 ,-0.0975071847849498 ,-0.08055931643366185 ,-0.35913663652798544 ,0.42217671443846955 ,1.060204205982644 ,0.025062159001928406 ,-0.09536537631889325 ,-0.5727506609645004 ,0.1883639840627021 ,-0.23906744327692897 ,-0.08495597943657555 ,0.41211597021088187 ,0.32846177051780817 ,0.5599579874421831 ,0.4496949561513104 ,0.9916850545840954 ,-0.9144766191098723 ,0.14525868244099427 ,0.6257068902913644 ,0.9080639426554222 ,0.9668428109563643 ,-0.05256998201877102 ,0.5799696585136973 ,0.48759338790847273 ,-0.2150483335294245 ,0.3228488205460991 ,-0.693599451779223 ,-0.21528547417639582 ,-0.8515658590509687 ,-0.389299978516477 ,-0.46918644736196763 ,0.38332958238732107 ,0.721150920324531 ,-0.0718273346432789 ,0.12719232843238407 ,0.6460002327527541 ,0.6372308637168711 ,-0.6931553175311218 ,0.07043136987799349 ,-0.4579460333474625 ,-0.9342710846001999 ,0.365409541278948 ,-0.9151909424664085 ,0.4838126131036953 ,0.2018944384882204 ,-0.6918620579698239 ,0.23421869072223397 ,-0.44619218844929176 ,-0.7811882364752182 ,-0.5978800658080862 ,0.6378627536530749 ,0.2899486506604212 ,0.32356288637956443 ,-0.4815257287965117 ,0.3581499654520859 ,0.9461627706049038 ,-0.6569200322512312 ,-0.3861328470286595 ,0.020158480671242585 ,0.7482808261649936 ,-0.06738839222558167 ,-0.313029672567239 ,-0.25080514068091825 ,-0.005491975300255788 ,-0.08209481626394019 ,-0.600962895955761 ,0.14998007123660415 ,0.6492634093842244 ,-0.6903045128100281 ,0.9220522491396677 ,0.4247650655842945 ,-0.9515674739571578 ,-0.07694440028631366 ,-0.218360945748603 ,-0.1745407956797345 ,-0.7047846672890759 ,0.24375741380354557 ,-0.35408314412982 ,0.4438654694254011 ,0.6571573846321996 ,0.9533805082872324 ,0.006332539701267322 ,0.25746516994803276 ,0.5051299988866679 ,-0.23363316524292566 ,0.3200073126329955 ,-1.1565759476942943 ,-0.4285688998700988 ,-0.05353248766494613 ,0.49881104311298585 ,-0.9259415385411957 ,0.008970704975907951 ,-0.02255372350739786 ,0.9547522035751098 ,0.9634420213138564 ,0.5291301748831864 ,0.4643013976137436 ,-0.5714046095004018 ,-0.31778441235063337 ,-0.6209472138974774 ,-0.7832487378570151 ,-0.8028312866022418 ,0.08508832546303369 ,-0.6070781651244733 ,0.8541126017072466 ,-0.5231095296070795 ,0.15478068269730685 ,-0.1167985777650046 ,-0.6503510138298271 ,-0.26594041883379915 ,0.6761244133476829 ,1.1277859657877003 ,0.8443554342985445 ,0.08477641079800471 ,0.22634828680705318 ,-0.5104634701959682 ,-0.5848680320761608 ,-0.17284755201123 ,-0.38596794631596953 ,-0.2877800282218178 ,0.23237224175030205 ,1.0475010911917677 ,-0.04906126568532771 ,0.8305282355494312 ,-0.340939473858675 ,0.974561021471094 ,0.14792598185305236 ,0.7973518346264981 ,0.8431303725573249 ,0.5621545638860128 ,0.25819856487600257 ,0.956854433578206 ,-0.14320648915954473 ,-0.8769821734311238 ,-0.32712507067817737 ,1.0592141978481593 ,0.5341542790693466 ,-0.12385602301406899 ,0.32528653597567486 ,-0.03850595390896449 ,-0.4959885880795382 ,-0.4438882348930898 ,-0.15385115475352315 ,-0.7407802007034412 ,-0.014612667910314374 ,0.014936441559460655 ,-0.08014983316406571 ,0.44649426413234794 ,0.4645206583547141 ,0.39024622641370615 ,0.15056387905769333 ,0.34210608923031766 ,-0.9331571632146819 ,0.16986877296447628 ,0.28688254619732856 ,-0.6253574935117692 ,0.06090151916613107 ,-0.5197284481018989 ,-0.3494832857288248 ,-0.39477204590407006 ,-0.655426138733864 ,0.8808815526028323 ,0.8729437542543159 ,0.34148069728417935 ,-0.0016183576558504087 ,-0.6079172714106557 ,-0.6768912427936937 ,0.691937182832559 ,0.3578427948229922 ,0.7572853528690507 ,-0.660921201020842 ,0.03712210401156237 ,-0.2691774036991619 ,0.9419761360697462 ,0.7980302186318404 ,1.1392651929631235 ,-0.4008787559157179 ,-0.18409989766004634 ,0.4526858649021973 ,0.9147912904820938 ,-0.29326496944386204 ,-0.6640940598668176 ,0.16151432394706236 ,-0.29437685805964764 ,0.4865624329234217 ,-0.9381096225041747 ,-0.8724723044423235 ,0.4818995169685636 ,-0.8799080352938212 ,-0.0075814435525989494 ,0.04458118420487279 ,0.4601509854165828 ,-0.2710015433366303 ,0.24937687130649547 ,1.1923834331833922 ,-0.5931145164529786 ,-0.0446797261150133 ,-0.5270058917082462 ,0.5930173328881772 ,1.1117578353766546 ,-0.05385554958667371 ,-0.3245308530737826 ,0.5558321523642813 ,-0.37343415477525466 ,-0.47501625251742324 ,0.315572358665833 ,-0.021798995983124295 ,0.29397780078997027 ,-0.1471638104377442 ,-0.07980121393895943 ,0.6253456421868682 ,-0.5129638208018015 ,-0.7947242592169144 ,-0.3420713543834004 ,0.8259398847946022 ,0.6740491269158466 ,-0.9418769901125987 ,-0.47730334805320457 ,0.9293638503564772 ,-0.5070062501906715 ,-0.78138118152533 ,-0.8902992173678855 ,-0.551196469974093 ,0.25940355339663224 ,0.1689032453465381 ,-0.42662535696181336 ,0.29063014867081466 ,0.20981106310786735 ,-0.5059685378388923 ,0.5227827729439734 ,-0.8645061122448164 ,0.20953932059689018 ,0.06352688959840201 ,-0.2044814341282288 ,0.5936041566760043 ,-0.7030261732782253 ,-0.43288919200549075 ,-0.39360876423175695 ,0.2660691057652764 ,0.9642963902401234 ,0.12682360164836992},
        {0.7095027814240153 ,0.7740026761463263 ,-0.23488110505375248 ,-0.17921147912151136 ,-0.41963019541657176 ,0.24073533516450296 ,0.37831524105317427 ,-0.046727604696284786 ,-0.1648062737439242 ,0.128762916298631 ,0.8642952529859145 ,0.9649040843190386 ,0.9643844338953267 ,-0.47352566730699464 ,-0.3665287766202384 ,0.19910344570369448 ,-0.4610093343901487 ,-0.9213326396758472 ,-0.3431642483296353 ,-0.6495516485222648 ,-0.606154846667611 ,0.746452289359046 ,-0.6245404730238557 ,0.44219290981923587 ,0.44779000454172313 ,0.700713268194447 ,0.016917096770151296 ,0.1372506359996255 ,-0.6579044901494158 ,0.3260772264549774 ,0.810426845776385 ,-0.5053719415969671 ,0.3296935265404345 ,0.1583294662542003 ,0.15615506560056278 ,0.39086208615776497 ,-0.19608088768231063 ,-0.3450478887041667 ,-0.35720146953358134 ,0.39604212104556047 ,-0.7637899994864991 ,0.21396114760766377 ,-0.911776692234285 ,-0.16848714850376895 ,-0.5002620114989575 ,-0.17046774766768705 ,-0.7365779364561996 ,-0.6026302357341862 ,0.36217411917337267 ,-0.30209736209412813 ,-0.2547299626610108 ,0.6540899456850873 ,0.865623341195521 ,-0.5413809033740173 ,0.4366743543287077 ,-0.687224744686981 ,0.6328783907698059 ,-0.5082065620042608 ,-0.3054967195383876 ,0.18447751354635494 ,0.058797360722524006 ,-0.3537628955281956 ,0.5834928531948572 ,-0.7257496217896449 ,-0.19428347742323823 ,0.09729921755324204 ,0.46683666884028124 ,-0.23261333570328405 ,0.818170468202898 ,-0.14325060512163448 ,0.03074936312828797 ,-0.6551426482192462 ,0.2661088760122019 ,-0.14729053377777557 ,-0.909856085130755 ,0.41894404062520574 ,-0.13217251660974827 ,0.41053461884692277 ,0.9035778646196277 ,0.5957924279536866 ,-0.575860256872208 ,0.8009942888197646 ,0.2873353634850422 ,0.20937913025018018 ,-0.12777638343733466 ,-0.2767670658843506 ,-0.6880372150655025 ,-0.09477170113347648 ,0.48241017777745915 ,-0.2510450095150947 ,-0.29125893924176033 ,-0.1540136603972399 ,0.5269250577963174 ,0.20737677308793667 ,0.5939325607863035 ,0.06606938773578334 ,-0.784984465657809 ,-0.5494825534496768 ,-0.04552441792450719 ,0.4385127646090881 ,-0.08136521062674056 ,0.1880357532159876 ,-0.2966034470890707 ,-0.6775334475393993 ,0.6426681842932344 ,0.7781555641659798 ,-0.0037160936042627676 ,0.48175453818952113 ,-0.17419412127461673 ,0.41852354865967695 ,0.12920541434161872 ,-0.6235262039814933 ,-0.24855568621612933 ,0.6153623053897462 ,-0.2800553997399883 ,-0.501898591274315 ,-0.20024349922204304 ,-0.8751702176599883 ,-0.6054695472464606 ,0.4655018345111677 ,-0.7910953986234193 ,-0.20181873924955582 ,0.34135771028846507 ,0.2654080769442014 ,-1.0031080460658626 ,-0.8307701624071856 ,-0.30441888086866914 ,0.1994641501862393 ,-0.8578377480849965 ,-0.1243272933966496 ,-0.30769630020712824 ,0.41691908163735597 ,-0.37800888362666285 ,-1.0215545059359146 ,-1.0026435946784649 ,-0.07539059241388658 ,0.05892004107054446 ,-0.2697855132246564 ,0.37878897504950004 ,-0.2056605191244788 ,-0.16179986730432772 ,0.9225406123579969 ,-0.7652336261059333 ,-0.20114936596973457 ,-0.549231564298388 ,-0.33265072218827385 ,-0.40573335976616365 ,0.056807892506607546 ,-1.164841654744436 ,-0.3128729293978348 ,-0.31679231799756674 ,-0.527933193320717 ,0.29234741971656864 ,0.5832887436276533 ,0.05376501545620943 ,-0.38022736541788965 ,-0.6375166830452608 ,0.2848887840145769 ,-0.47606566151958035 ,-0.3862885787982533 ,-0.6548636812595819 ,-0.4362529293084401 ,0.5323256977228885 ,-0.34205267825432706 ,0.4569755757264256 ,0.11191180120411806 ,0.9904505478301476 ,-0.36144482929809413 ,-0.35851614935574494 ,-0.7987863597271098 ,-0.10570060079140112 ,-0.3108072543587012 ,-0.1503302429078668 ,-0.2721813497369516 ,-0.9105460125153864 ,-0.7956111848402091 ,0.4550106521954422 ,-1.043850134484051 ,-0.5036643953247768 ,0.7964673465384664 ,0.18799678772821546 ,1.3939203663624322 ,0.45728536953767424 ,-0.9144029288263349 ,0.13102186703151333 ,-0.09687104108698648 ,0.1561156644611845 ,0.8047420992010786 ,0.235425643045943 ,0.35613228310712314 ,-0.36856010444153037 ,-0.6025653639329598 ,0.8798563566078142 ,0.39546386526404265 ,-0.13882995644332127 ,0.8585616913545412 ,-0.3304373463864548 ,-0.4945035558523115 ,-0.9205279711005999 ,-0.6010695343715393 ,-0.05106939252313648 ,-0.40532186581849394 ,0.3509975668840005 ,-0.24340170131196168 ,0.5396321730480582 ,0.20661640867181327 ,1.4571095076663168 ,0.3270701637480858 ,1.1686132763252028 ,-0.15452025698730276 ,0.6259966188565277 ,0.8137459435314104 ,0.8813129409412753 ,-0.20027440848961575 ,0.03941735325759167 ,0.805635409490559 ,-0.49327615543866704 ,0.1786255412565487 ,0.12187802056709113 ,0.8160600944108631 ,-0.8860042146135443 ,-0.754804543591185 ,0.4506090476986037 ,0.6173769599499931 ,0.26799413858917887 ,0.7780830621548219 ,0.4064707118628428 ,-0.10510800804790485 ,-0.23916004328739052 ,-0.4685575212789819 ,0.39150306358750664 ,-0.326520888338554 ,-0.4088345484862276 ,-0.08438174972796028 ,0.5622451142047792 ,0.2086313462549697 ,0.8818188353733931 ,0.8215342012483599 ,0.05715365375223203 ,-0.4831101258734243 ,0.35283947541405714 ,-0.3716143359607588 ,0.9626768754723969 ,0.6572915895679284 ,0.16452665175117084 ,0.44391657705023657 ,0.9961002913722194 ,0.018987240932425164 ,0.42962739420956736 ,0.5468371978070125 ,-0.2826574224340511 ,-0.20254319095712817 ,0.5573631530823036 ,-0.4355653391899506 ,0.674025268427297 ,-0.40705649121852955 ,-0.9272918754521315 ,0.12307018914889427 ,-0.4813350918977077 ,0.40999469972705904 ,0.4382335048763598 ,-0.38433066257315235 ,0.8480392582516307 ,0.8213615453624116 ,-0.2371350315041204 ,-0.39629137955305693 ,0.24374759702117166 ,0.028297703601533587 ,0.2031560335465373 ,0.7680391111821693 ,0.8691209557884636 ,0.21619491585513412 ,0.32429715354676725 ,1.0628264513584027 ,-0.2825880663925355 ,0.9244664714869194 ,0.5453578689912965 ,0.4208502995890761 ,0.7180665809547764 ,-0.4259056031348425 ,-0.3745302504151297 ,-0.6948061011236977 ,0.4225647264825492 ,0.48315704602993736 ,0.6430146878885187 ,0.3191925101166658 ,-0.062232745751294026 ,0.8570488150545584 ,-0.3036976895755511 ,-0.03872406838903331 ,0.8113183390643669 ,1.4230392222132533 ,-0.4594864074683113 ,-0.2821509788266277 ,0.37848161937448566 ,1.122677247669719 ,-0.05842848381746943 ,0.7560191072001071 ,0.49755429860721767 ,0.4983254753316234 ,0.526247226198907 ,0.5564288643493523 ,0.24611376787870637 ,-0.5314600464682706 ,-0.8470796654422336 ,-0.5245793404646816 ,-0.03737107251120533 ,-0.07761372130760023 ,-0.10379712130516071 ,-0.17853374171203806 ,-0.5306337979429149 ,-0.5405375552990519 ,1.0300162744856558 ,-0.5115694847411633 ,1.0977041939146002 ,0.5662979996658302 ,1.0254308960847591 ,0.5086936077879258 ,0.05534203290529474 ,1.2903681589672835 ,0.6033884206493793 ,-0.18663872164821665 ,-0.8519929464455 ,-0.5028369783759338 ,0.5178998753419332 ,0.45973210739149206 ,-0.2817482032550538 ,0.9024005490026582 ,0.9204292745527108 ,0.5369096930217409 ,0.38156280036935036 ,0.5358884727527934 ,-0.5472109930813246 ,0.2805758160014138 ,0.4324346911990882 ,-0.7497736356387152 ,-0.9745631969163663 ,-0.9105944363188729 ,0.4627048236937987 ,0.12451702574182481 ,-0.6586147895697178 ,0.3542769408881399 ,0.7125216652704942 ,0.5676088864786446 ,0.11490199753247544 ,0.785529778534835 ,0.826671969715776 ,0.9681061303978566 ,-1.3401719818484767 ,-0.585201007666863 ,-0.4980325463173047 ,-0.03132128330129828 ,-0.488535135083699 ,0.7546348145741015 ,-0.7984361873729324 ,0.6191651364349541 ,-0.27617421323533753 ,-0.28874054060019627 ,-0.01695919780040185 ,0.823855402249922 ,-0.06655109159552951 ,0.8560298930428953 ,-0.6423281883440949 ,0.10013134547921844 ,-0.274657589349677 ,0.028029450019632734 ,-0.05950819184358068 ,0.9071691550267709 ,-0.5259199248316384 ,-0.08492110289858223 ,0.8282933938602974 ,0.7031164158065285 ,1.942491329040623 ,0.17601271526305365 ,0.8798667788423711 ,0.31422175356964777 ,-1.201529814642342 ,-0.917265670665844 ,0.1449914867784295 ,-0.4690378584725668 ,-0.8706286967740485 ,-0.153916727207074 ,-0.17282266737089527 ,1.1209880468721498 ,1.2254022173908374 ,-0.48203767230029515 ,0.8745559805025012 ,-1.0221094329984666 ,-0.8702513119814377 ,-0.015571739730145235 ,-0.6183656969978658 ,-0.3508724525354903 ,-0.3511396134553398 ,0.9290716949958032 ,-0.8405863181760937 ,-0.25921974583357227 ,-0.33361973765495245 ,0.8429924832511352 ,1.081735698494575 ,-0.2761776370151974 ,-0.02488505970104542 ,-0.22207002152892427 ,0.7280194321904094 ,-0.6512163229625574 ,-2.1034937759762817 ,-0.10955054698855995 ,-1.4039919802883924 ,-0.36948292126737603 ,-0.28401032685875777 ,-0.17288518423000404 ,-0.8303058491839982 ,0.043455579299456176 ,0.09598963686770755 ,0.45169792844187334 ,0.8983867068254334 ,0.1487044881285114 ,-0.7376786665183289 ,0.5162754477083311 ,-0.5104377852566571 ,-0.7394637789557601 ,-0.754622581526894 ,0.9663319799140304 ,-0.5641525910132779 ,-0.46142370584221776 ,0.22733486433483166 ,-0.6214478650941133 ,-0.5293365089581163 ,0.28127827244874576 ,-0.12978157604009297 ,-0.1426372244027954 ,0.850249547708794 ,-0.002290086282589236 ,-1.1292188289251814 ,-1.8679034243849382 ,-1.0290434589080704 ,0.1352909817589511 ,-0.25181466694149157 ,0.26443157020432956 ,0.6067572728353819 ,0.4561409511292262 ,0.06559729050123364 ,-0.19691055711135996 ,0.07477268444784307 ,-1.0539471333364305 ,0.7918954949011147 ,-0.5448757923945943 ,0.8345414981142428 ,0.6874252518070006 ,-0.09020358968868498 ,0.30012923707180633 ,-0.2985402231276469 ,-0.35326110407514055 ,-0.582369241934037 ,0.9706283621388053 ,0.24945509438462934 ,0.2160814652744784 ,-0.17896486924499852 ,-0.2265302450930149 ,0.03186411024336301 ,-0.4040929451124483 ,-1.4035533674216552 ,-1.452666651896978 ,-1.1941635577464735 ,-0.9535352904419189 ,0.26477575708273 ,1.1248062671867678 ,0.4326385946787424 ,-0.8763602841898618 ,-1.0771881398712742 ,0.15194412492051843 ,0.3285199727760345 ,0.47942118681350904 ,0.587709525743083 ,-0.7080333150646292 ,0.8800633166852099 ,0.6704984010129164 ,0.7936232058362798 ,-0.06480728686032576 ,-0.1494024790516408 ,-0.33992428939677244 ,-0.8757256870059199 ,-0.37016842164976343 ,0.22334931436497796 ,0.5761961079450498 ,0.1296774874221789 ,-0.6253062411887663 ,-1.073552986061799 ,0.47571331564046326 ,-0.15170369244904292 ,-0.4224786168521131 ,-0.6017125524161044 ,-0.03623593593432408 ,0.6547314878052205 ,-0.5292656673428139 ,-0.5264594432857526 ,0.48431897132590085 ,-0.19742886785546707 ,0.20418548936314904 ,0.25664869015797687 ,-0.485616617396624 ,0.370375916834523 ,-0.04679750995592016 ,-0.9406681773453528 ,-0.6505834941903114 ,0.4867368952627857 ,0.240365923661533 ,0.279258137615504 ,0.4380792647564978 ,0.3833043936436664 ,0.2876033027577095 ,0.9580780941569016 ,-0.3949313335460638 ,-0.6972998879187176 ,0.5904829206260503 ,-0.6892514251147402 ,-0.05449732190135527 ,-0.6503213871848671 ,0.12274165907325703 ,-0.34939247993486894 ,-0.6215136674775482 ,-1.0872298937762583 ,-0.4453551593063277 ,-0.7804600314947733 ,-0.8041793008969089 ,0.47212699146078413 ,-1.3847973726933718 ,-0.07977604130380553 ,-0.8072274095737395 ,0.8661078111762608 ,-0.5102384094144605 ,-0.1312006692252786 ,-0.13481537723370957 ,-0.7277310135539857 ,-0.08484857214246515 ,-0.7136762018018757 ,0.5556099346389958 ,-1.00183917387837 ,0.7208120549178376 ,-0.7694148927348419 ,0.968801548700025 ,0.5881140686682266 ,0.0011288927439884798 ,-1.1662889711994402 ,-0.984344140876803 ,-0.3818289838524916 ,0.7142348078214897 ,-1.0906972491586504 ,-0.3036677079039612 ,-0.20266488120936313 ,0.28733997100124065 ,0.776763729897376 ,-0.512308389692944 ,-1.5006726036814488 ,-1.2410909797801428 ,-0.7454053901501366 ,0.7574235901852613 ,-0.8388303203034951 ,-0.3062345786755454 ,-0.037147443399693586 ,0.9101881447893716 ,0.17239067168888322 ,0.5330076525559604 ,-0.001855639260056074 ,-0.047988130985393 ,0.716417783404628 ,0.012514077183373206 ,0.355115581785886 ,-1.0376863781954346 ,-0.07327930862437691 ,-1.1766654144076085 ,0.6832688662536249 ,-0.7625757958181826 ,0.8534213346208692 ,-0.07528452169366764 ,0.09590891339524106 ,-0.5342528665038904 ,-0.5090774379066325 ,-0.3348068007624213 ,-0.75625499859144 ,-1.1178373955121876 ,-0.15700258889221533 ,-0.40644568861303443 ,0.23668051348379698 ,-1.1219906537400175 ,0.6507385981704628 ,0.856742882771233 ,-0.7429643046647393 ,-0.875848695137037 ,-0.4143529540326528 ,-0.44665498659453495 ,-0.035492384779712685 ,-0.6905351141873912 ,0.2874049560487354 ,0.6635971870783436 ,-0.5423236296808509 ,-1.0924558112448826 ,-0.8714048820876514 ,0.06907441945666382 ,0.5829217389150475 ,-0.6581417752862586 ,-0.3827432797860152 ,0.01175925005262753 ,-0.9315427400126208 ,-0.8061541268300915 ,-1.4114594793783983 ,-0.32797308293035166 ,-0.5253636506984691 ,0.1259080288943273 ,-1.3665909383916877 ,-1.0219727556849083 ,-1.0747001468949324 ,0.540600667747412 ,-0.5415593651545044 ,0.40931433078713414 ,-0.31372989335344215 ,0.29097220307744565 ,-0.5081706034598709 ,-0.6889749915669655 ,-0.4687502609626705 ,-0.5856045519505252 ,-0.3565107320061508 ,-0.2347887540458373 ,0.5645763145801082 ,-0.8394184956179697 ,-0.05158198122782603 ,-0.16570745555826755 ,0.07950853344971091 ,-0.28370813317986293 ,0.6543234417761411 ,0.40438158910498156 ,0.20309231019969254 ,0.19119730266305537 ,0.3658940675114563 ,-0.4772208129148589 ,-0.7805127161192169 ,-0.9015252582693589 ,-0.2458293098055235 ,0.42120945843175905 ,-0.20573114736259185 ,0.3420911494056594 ,-0.10069059023143484 ,-0.9831927860956196 ,-0.8317543394298961 ,0.007221114036932995 ,-0.8530430264833322 ,0.463761377580153 ,0.9768126930511991 ,-0.42543111901136393 ,0.49885845251963173 ,-0.673609819711196 ,0.7536922066445038 ,0.8014487511346999 ,-0.2645200842953481 ,-0.7340248403399928 ,0.023011622428041396 ,-0.23985555589478924 ,-0.34356581789345664 ,0.05272625607714726 ,0.19699013697588508 ,-0.13609377229853264 ,-0.5974537040747603 ,-0.3374668565175767 ,-1.0056895641493708 ,-0.25426401815602434 ,0.5470023099502398 ,-0.21265060671736535 ,-0.11599182593217834 ,0.5187576168246912 ,0.13357173361432964 ,-0.49606903072163727 ,0.07555865931236948 ,0.5847472372457097 ,0.551616531651189 ,0.35082370135648633 ,0.5482974677041668 ,-0.9005147509086197 ,0.5798043679349351 ,0.3183060247357182 ,0.17536562951325482 ,-0.7942843476348291 ,-0.2422385852668586 ,0.6505568185216407 ,-0.5257472477066633 ,-0.28381133471153097 ,0.04420525959113069 ,-0.6046740482640274 ,0.5341511539427187 ,-0.714529592919496 ,0.913880541752642 ,0.9339425528523586 ,0.7614715995529164 ,0.5653315804475263 ,1.0007451564841991 ,0.4953915565508265 ,0.3392009706774261 ,-0.0006333542892708505 ,0.9740332534598464 ,-0.8065132878616478 ,-0.8786852667728077 ,-0.28108651007316743 ,-0.8751424272763533 ,0.07452595371604387 ,0.5871282221521409 ,0.11873217320788994 ,-0.3831395647732946 ,0.053930436978764436 ,-0.4836805698338515 ,0.5390330441986635 ,0.658773805721175 ,0.493543725845035 ,-0.5221837768486708 ,-0.23406174067048158 ,0.3795588771723677 ,0.9607320705388149 ,0.10623565661669492 ,0.0427246452260921 ,0.1123805927304876 ,0.9158369481168191 ,-0.1843453952316591 ,0.7501388813479956 ,0.6874737149467158 ,-0.4688315668079243 ,-0.43679711657185555 ,0.3127828198130464 ,0.5251982638201623 ,0.7419136501058778 ,-0.5190502729555317 ,-0.5358956390438101 ,-0.9676044684409428 ,-0.44809848986504375 ,-0.134906278678395 ,0.01493934662054347 ,-0.5764759629696856 ,-0.3360257818199696 ,-0.015085147175745182 ,0.016359687739463606 ,1.1044306208095185 ,0.040858463668233466 ,0.4573621839934636 ,0.41731919600215256 ,1.1713344604576572 ,0.36814501191283816 ,0.7112037142276525 ,-0.2081276823023176 ,-0.1577736576631013 ,0.05531376439072459 ,-0.3721310818941785 ,1.0370286447732036 ,0.5872738048345164 ,0.5066896816797796 ,0.636224523235305 ,0.42518218012870107 ,-0.6163143692885495 ,0.5385973893346091 ,-0.41672317152198124 ,0.1351968569711519 ,-0.12276850716823695 ,0.2553577512375136 ,0.5445124006494211 ,-0.7547083468500118 ,0.8525550328015309 ,-0.8330624945767721 ,-0.5755217445523274 ,0.06934392778964342 ,-0.758161431127693 ,0.19557435483290378 ,0.00040201497685047076 ,0.8390193160449267 ,-0.4947059029124894 ,-0.8452206092325615 ,-0.8355260665262312 ,0.6898316402290182 ,0.1989948554906994 ,-0.6720468478019332 ,-0.03394975410556548 ,-0.11777850362685686 ,0.2869426476460027 ,-0.10334533149168763 ,-0.8321056252198806 ,-0.08090978222528722 ,-0.3165442781978791 ,-0.15900620589224435 ,0.021844257757479557 ,-0.9938191284776434},
